{"learner":{"attributes":{},"feature_names":["Altitude_m","Annual_Rainfall_mm_year","Spring_Rainfall_mm_season","Summer_Max_Temp_C_avg","Frost_Days_count","Irrigation_L_per_tree","Tree_Age_Years","Tree_Density_per_hectare","Fertilizer_20_20_20_kg_per_tree","Pest_Pressure_Index","Soil_Type_enc","Pruning_Intensity_enc","Prev_Year_Oil","Prev_Year_Olives","Oil_YoY_Change","Rain_3yr_avg","Rain_2yr_avg","Irr_3yr_avg","Heat_Stress","Temp_Rain_Index","Spring_Rain_Ratio","Frost_Altitude","Total_Water","Water_per_Tree","Irr_Rain_Ratio","Tree_Productivity","Fert_per_Tree","Age_Density_Ratio","Field_Oil_Mean","Oil_vs_Field_Mean"],"feature_types":["float","float","float","float","float","float","float","float","float","float","float","float","float","float","float","float","float","float","float","float","float","float","float","float","float","float","float","float","float","float"],"gradient_booster":{"model":{"gbtree_model_param":{"num_parallel_tree":"1","num_trees":"150"},"iteration_indptr":[0,1,2,3,4,5,6,7,8,9,10,11,12,13,14,15,16,17,18,19,20,21,22,23,24,25,26,27,28,29,30,31,32,33,34,35,36,37,38,39,40,41,42,43,44,45,46,47,48,49,50,51,52,53,54,55,56,57,58,59,60,61,62,63,64,65,66,67,68,69,70,71,72,73,74,75,76,77,78,79,80,81,82,83,84,85,86,87,88,89,90,91,92,93,94,95,96,97,98,99,100,101,102,103,104,105,106,107,108,109,110,111,112,113,114,115,116,117,118,119,120,121,122,123,124,125,126,127,128,129,130,131,132,133,134,135,136,137,138,139,140,141,142,143,144,145,146,147,148,149,150],"tree_info":[0,0,0,0,0,0,0,0,0,0,0,0,0,0,0,0,0,0,0,0,0,0,0,0,0,0,0,0,0,0,0,0,0,0,0,0,0,0,0,0,0,0,0,0,0,0,0,0,0,0,0,0,0,0,0,0,0,0,0,0,0,0,0,0,0,0,0,0,0,0,0,0,0,0,0,0,0,0,0,0,0,0,0,0,0,0,0,0,0,0,0,0,0,0,0,0,0,0,0,0,0,0,0,0,0,0,0,0,0,0,0,0,0,0,0,0,0,0,0,0,0,0,0,0,0,0,0,0,0,0,0,0,0,0,0,0,0,0,0,0,0,0,0,0,0,0,0,0,0,0],"trees":[{"base_weights":[-1.31000395E1,-5.1573315E2,7.2017957E2,-8.075567E2,1.1571301E2,4.209561E2,1.815133E3,-9.630361E1,-5.1956006E2,-1.9879936E2,3.7293787E2,-9.0497406E1,7.4438525E2,2.2395113E2,9.428526E1,-5.88209E1,-2.097011E1,3.097062E0,-2.5330053E1,1.9507355E1,6.1850613E1,9.778806E0,-4.206045E1,7.985846E1,2.737425E1],"categories":[],"categories_nodes":[],"categories_segments":[],"categories_sizes":[],"default_left":[0,0,0,0,0,0,0,0,0,0,0,0,0,0,0,0,0,0,0,0,0,0,0,0,0],"id":0,"left_children":[1,3,5,7,9,11,13,-1,15,17,19,21,23,-1,-1,-1,-1,-1,-1,-1,-1,-1,-1,-1,-1],"loss_changes":[4.349418E7,1.2992404E7,1.4962426E7,1.648968E6,1.934849E6,6.518705E6,1.590242E6,0E0,2.8081E5,1.45595E5,4.471575E5,1.0356E6,3.93598E5,0E0,0E0,0E0,0E0,0E0,0E0,0E0,0E0,0E0,0E0,0E0,0E0],"parents":[2147483647,0,0,1,1,2,2,3,3,4,4,5,5,6,6,8,8,9,9,10,10,11,11,12,12],"right_children":[2,4,6,8,10,12,14,-1,16,18,20,22,24,-1,-1,-1,-1,-1,-1,-1,-1,-1,-1,-1,-1],"split_conditions":[1.6311587E3,1.2792369E0,1.3253618E0,7.521497E-1,1.1161804E3,8.9034134E-1,1.375E1,-9.630361E1,7.38529E3,6E-1,7.017E2,1.36091E4,2.685E2,2.2395113E2,9.428526E1,-5.88209E1,-2.097011E1,3.097062E0,-2.5330053E1,1.9507355E1,6.1850613E1,9.778806E0,-4.206045E1,7.985846E1,2.737425E1],"split_indices":[28,29,29,29,28,29,4,0,13,9,0,13,2,0,0,0,0,0,0,0,0,0,0,0,0],"split_type":[0,0,0,0,0,0,0,0,0,0,0,0,0,0,0,0,0,0,0,0,0,0,0,0,0],"sum_hessian":[1.16E2,6.9E1,4.7E1,4.7E1,2.2E1,3.8E1,9E0,2.9E1,1.8E1,1E1,1.2E1,1.5E1,2.3E1,5E0,4E0,1.4E1,4E0,2E0,8E0,8E0,4E0,1E1,5E0,2E1,3E0],"tree_param":{"num_deleted":"0","num_feature":"30","num_nodes":"25","size_leaf_vector":"1"}},{"base_weights":[3.218974E1,-5.865189E2,3.9773303E2,-8.42807E1,-3.1522037E2,2.1696854E2,2.595615E2,-5.471851E2,-3.3511475E1,-1.139114E0,6.458268E2,-2.14125E1,-6.869496E1,-3.0012897E1,1.0398621E1,-2.219091E1,4.914354E1,7.3149765E1,2.965534E1],"categories":[],"categories_nodes":[],"categories_segments":[],"categories_sizes":[],"default_left":[0,0,0,0,0,0,0,0,0,0,0,0,0,0,0,0,0,0,0],"id":1,"left_children":[1,3,5,-1,7,-1,9,11,13,15,17,-1,-1,-1,-1,-1,-1,-1,-1],"loss_changes":[2.5563736E7,2.654615E6,1.6820004E7,0E0,1.419287E6,0E0,6.7476085E6,4.1150625E5,4.344614E5,4.5676265E6,5.90979E5,0E0,0E0,0E0,0E0,0E0,0E0,0E0,0E0],"parents":[2147483647,0,0,1,1,2,2,4,4,6,6,7,7,8,8,9,9,10,10],"right_children":[2,4,6,-1,8,-1,10,12,14,16,18,-1,-1,-1,-1,-1,-1,-1,-1],"split_conditions":[8.489002E-1,2.544E2,4.3095E2,-8.42807E1,-6.2228495E-1,2.1696854E2,8.69018E3,1.375E1,1.4645533E3,1.5736924E0,1.0761E3,-2.14125E1,-6.869496E1,-3.0012897E1,1.0398621E1,-2.219091E1,4.914354E1,7.3149765E1,2.965534E1],"split_indices":[29,5,18,0,14,0,13,4,12,29,1,0,0,0,0,0,0,0,0],"split_type":[0,0,0,0,0,0,0,0,0,0,0,0,0,0,0,0,0,0,0],"sum_hessian":[1.11E2,4.1E1,7E1,2E1,2.1E1,4E0,6.6E1,1.1E1,1E1,4E1,2.6E1,4E0,7E0,3E0,7E0,2.8E1,1.2E1,2E1,6E0],"tree_param":{"num_deleted":"0","num_feature":"30","num_nodes":"19","size_leaf_vector":"1"}},{"base_weights":[-3.729486E0,-3.6102194E2,5.578189E2,-6.3916534E2,9.147425E1,2.7052988E2,1.0569038E3,-7.58626E1,-4.6091473E2,-2.105047E2,3.2695914E2,3.4837055E1,4.4512216E2,7.8570015E1,1.4421712E2,-5.2623486E1,-2.3168201E1,-2.4410833E1,-2.8324423E0,7.2169924E0,4.4713676E1,-1.3948028E1,1.2780924E1,1.8516853E1,5.464494E1],"categories":[],"categories_nodes":[],"categories_segments":[],"categories_sizes":[],"default_left":[0,0,0,0,0,0,0,0,0,0,0,0,0,0,0,0,0,0,0,0,0,0,0,0,0],"id":2,"left_children":[1,3,5,7,9,11,13,-1,15,17,19,21,23,-1,-1,-1,-1,-1,-1,-1,-1,-1,-1,-1,-1],"loss_changes":[2.1669544E7,8.36515E6,5.736104E6,5.2339E5,1.917725E6,1.1366974E6,4.34175E5,0E0,1.625775E5,6.654875E4,4.270295E5,2.2851347E5,3.2026075E5,0E0,0E0,0E0,0E0,0E0,0E0,0E0,0E0,0E0,0E0,0E0,0E0],"parents":[2147483647,0,0,1,1,2,2,3,3,4,4,5,5,6,6,8,8,9,9,10,10,11,11,12,12],"right_children":[2,4,6,8,10,12,14,-1,16,18,20,22,24,-1,-1,-1,-1,-1,-1,-1,-1,-1,-1,-1,-1],"split_conditions":[1.6311587E3,1.2792369E0,1.1968725E0,7.047503E-1,1.1161804E3,8.2164407E-1,2.3844788E3,-7.58626E1,6.53415E3,4.5530115E2,2.0962634E0,3.17E1,2.4E1,7.8570015E1,1.4421712E2,-5.2623486E1,-2.3168201E1,-2.4410833E1,-2.8324423E0,7.2169924E0,4.4713676E1,-1.3948028E1,1.2780924E1,1.8516853E1,5.464494E1],"split_indices":[28,29,29,29,28,29,28,0,13,12,14,3,6,0,0,0,0,0,0,0,0,0,0,0,0],"split_type":[0,0,0,0,0,0,0,0,0,0,0,0,0,0,0,0,0,0,0,0,0,0,0,0,0],"sum_hessian":[1.06E2,6.5E1,4.1E1,4E1,2.5E1,2.7E1,1.4E1,2.2E1,1.8E1,1.1E1,1.4E1,1.2E1,1.5E1,1E1,4E0,1.3E1,5E0,9E0,2E0,5E0,9E0,4E0,8E0,5E0,1E1],"tree_param":{"num_deleted":"0","num_feature":"30","num_nodes":"25","size_leaf_vector":"1"}},{"base_weights":[4.8799763E0,-5.2139655E2,3.3643945E2,-6.732741E2,-1.2615696E2,2.1965791E2,1.8807367E2,-6.962329E2,-2.1160809E1,1.6170245E2,-3.0404578E2,-8.66678E0,5.543E2,-7.063402E1,-1.9650787E1,2.3787272E0,2.2471323E1,-4.7796894E1,-1.3742271E1,-3.7617115E1,1.8852009E1,5.738935E1,1.2638428E0],"categories":[],"categories_nodes":[],"categories_segments":[],"categories_sizes":[],"default_left":[0,0,0,0,0,0,0,0,0,0,0,0,0,0,0,0,0,0,0,0,0,0,0],"id":3,"left_children":[1,3,5,7,9,11,-1,13,-1,15,17,19,21,-1,-1,-1,-1,-1,-1,-1,-1,-1,-1],"loss_changes":[2.076547E7,2.67635E6,1.2752094E7,2.02449E5,7.660626E5,5.276891E6,0E0,1.7775E4,0E0,4.679553E4,1.9513269E5,3.1145312E6,2.89911E5,0E0,0E0,0E0,0E0,0E0,0E0,0E0,0E0,0E0,0E0],"parents":[2147483647,0,0,1,1,2,2,3,3,4,4,5,5,7,7,9,9,10,10,11,11,12,12],"right_children":[2,4,6,8,10,12,-1,14,-1,16,18,20,22,-1,-1,-1,-1,-1,-1,-1,-1,-1,-1],"split_conditions":[8.689582E-1,6.603089E0,8E2,7.968E2,2.161E2,8.69018E3,1.8807367E2,2E0,-2.1160809E1,1.3020833E-1,1.37E2,1.2792369E0,1.1183334E3,-7.063402E1,-1.9650787E1,2.3787272E0,2.2471323E1,-4.7796894E1,-1.3742271E1,-3.7617115E1,1.8852009E1,5.738935E1,1.2638428E0],"split_indices":[29,23,0,0,2,13,0,11,0,27,5,29,17,0,0,0,0,0,0,0,0,0,0],"split_type":[0,0,0,0,0,0,0,0,0,0,0,0,0,0,0,0,0,0,0,0,0,0,0],"sum_hessian":[1.17E2,4.5E1,7.2E1,3.2E1,1.3E1,6.8E1,4E0,3E1,2E0,5E0,8E0,4.1E1,2.7E1,2.9E1,1E0,2E0,3E0,3E0,5E0,1.4E1,2.7E1,2.6E1,1E0],"tree_param":{"num_deleted":"0","num_feature":"30","num_nodes":"23","size_leaf_vector":"1"}},{"base_weights":[-4.3010162E1,-3.143836E2,4.2229572E2,-5.4604913E2,1.1053287E2,2.7553793E2,1.3302983E3,-6.2440807E1,-3.2158444E2,-2.1695811E2,3.3520105E2,3.420799E1,4.5242496E2,1.4346834E2,4.041867E1,-3.585069E1,-1.3042102E1,-2.6793655E1,-4.801709E0,1.3500887E1,4.9814865E1,1.7639162E1,-1.2757471E1,3.4293964E1,6.148425E1],"categories":[],"categories_nodes":[],"categories_segments":[],"categories_sizes":[],"default_left":[0,0,0,0,0,0,0,0,0,0,0,0,0,0,0,0,0,0,0,0,0,0,0,0,0],"id":4,"left_children":[1,3,5,7,9,11,13,-1,15,17,19,21,23,-1,-1,-1,-1,-1,-1,-1,-1,-1,-1,-1,-1],"loss_changes":[1.5411633E7,7.640121E6,5.6299935E6,6.7864E5,2.132875E6,1.6920488E6,1.53E2,0E0,5.9116625E4,9.048269E4,4.8729975E5,4.3655444E5,1.9814E5,0E0,0E0,0E0,0E0,0E0,0E0,0E0,0E0,0E0,0E0,0E0,0E0],"parents":[2147483647,0,0,1,1,2,2,3,3,4,4,5,5,6,6,8,8,9,9,10,10,11,11,12,12],"right_children":[2,4,6,8,10,12,14,-1,16,18,20,22,24,-1,-1,-1,-1,-1,-1,-1,-1,-1,-1,-1,-1],"split_conditions":[1.8337051E3,1.2792369E0,8.901779E-1,9.056151E-1,1.1161804E3,8.9524716E-1,3.32E1,-6.2440807E1,7.18683E3,9.5365344E2,2.525E1,2.161E2,1.187429E4,1.4346834E2,4.041867E1,-3.585069E1,-1.3042102E1,-2.6793655E1,-4.801709E0,1.3500887E1,4.9814865E1,1.7639162E1,-1.2757471E1,3.4293964E1,6.148425E1],"split_indices":[28,29,14,29,28,29,3,0,13,28,4,2,13,0,0,0,0,0,0,0,0,0,0,0,0],"split_type":[0,0,0,0,0,0,0,0,0,0,0,0,0,0,0,0,0,0,0,0,0,0,0,0,0],"sum_hessian":[1.2E2,7.6E1,4.4E1,4.9E1,2.7E1,3.9E1,5E0,3.5E1,1.4E1,1.1E1,1.6E1,1.7E1,2.2E1,4E0,1E0,1.1E1,3E0,8E0,3E0,8E0,8E0,9E0,8E0,1.5E1,7E0],"tree_param":{"num_deleted":"0","num_feature":"30","num_nodes":"25","size_leaf_vector":"1"}},{"base_weights":[4.0050163E1,-2.4704463E2,4.9038177E2,-4.91477E2,1.12047035E2,2.7623364E2,1.2050541E3,-5.9312214E1,-3.1581696E2,-6.8840195E1,5.1688293E2,3.5046158E1,4.4249252E2,7.397256E1,1.6155032E2,-3.964946E1,-2.357138E1,-2.2642832E1,6.9799004E0,2.6121906E1,6.437891E1,2.2067213E1,-8.626548E0,5.0535606E1,2.2661076E1],"categories":[],"categories_nodes":[],"categories_segments":[],"categories_sizes":[],"default_left":[0,0,0,0,0,0,0,0,0,0,0,0,0,0,0,0,0,0,0,0,0,0,0,0,0],"id":5,"left_children":[1,3,5,7,9,11,13,-1,15,17,19,21,23,-1,-1,-1,-1,-1,-1,-1,-1,-1,-1,-1,-1],"loss_changes":[1.6282129E7,6.813637E6,7.166364E6,6.34011E5,2.378931E6,1.5483752E6,9.05902E5,0E0,2.932875E4,5.1830588E5,1.5628325E5,4.0185244E5,1.976155E5,0E0,0E0,0E0,0E0,0E0,0E0,0E0,0E0,0E0,0E0,0E0,0E0],"parents":[2147483647,0,0,1,1,2,2,3,3,4,4,5,5,6,6,8,8,9,9,10,10,11,11,12,12],"right_children":[2,4,6,8,10,12,14,-1,16,18,20,22,24,-1,-1,-1,-1,-1,-1,-1,-1,-1,-1,-1,-1],"split_conditions":[1.8337051E3,1.2792369E0,1.2635273E0,-2.533992E-1,1.3487029E3,8.9524716E-1,8E2,-5.9312214E1,1E0,9.5365344E2,1.5155419E0,2.125E2,2.276E2,7.397256E1,1.6155032E2,-3.964946E1,-2.357138E1,-2.2642832E1,6.9799004E0,2.6121906E1,6.437891E1,2.2067213E1,-8.626548E0,5.0535606E1,2.2661076E1],"split_indices":[28,29,29,14,28,29,0,0,10,28,29,2,2,0,0,0,0,0,0,0,0,0,0,0,0],"split_type":[0,0,0,0,0,0,0,0,0,0,0,0,0,0,0,0,0,0,0,0,0,0,0,0,0],"sum_hessian":[1.24E2,7.6E1,4.8E1,4.5E1,3.1E1,3.8E1,1E1,2.7E1,1.8E1,2.2E1,9E0,1.6E1,2.2E1,6E0,4E0,7E0,1.1E1,1E1,1.2E1,4E0,5E0,6E0,1E1,1.6E1,6E0],"tree_param":{"num_deleted":"0","num_feature":"30","num_nodes":"25","size_leaf_vector":"1"}},{"base_weights":[2.3663439E1,-3.4384412E2,3.4412778E2,-5.2411487E2,-1.2261466E2,-1.4390402E2,6.0950836E2,-5.755255E1,-3.4020947E1,-1.9472183E2,6.396672E1,7.84242E1,-3.5424023E2,1.3768858E2,4.646813E2,-2.9334415E1,-1.127468E1,1.0299506E1,-3.541219E0,-1.3854126E0,2.664444E1,-3.6846188E1,-9.890119E0,3.2154278E1,5.8995632E1],"categories":[],"categories_nodes":[],"categories_segments":[],"categories_sizes":[],"default_left":[0,0,0,0,0,0,0,0,0,0,0,0,0,0,0,0,0,0,0,0,0,0,0,0,0],"id":6,"left_children":[1,3,5,7,9,11,13,-1,-1,15,17,19,21,-1,23,-1,-1,-1,-1,-1,-1,-1,-1,-1,-1],"loss_changes":[1.3897775E7,2.1292015E6,8.247103E6,8.78415E4,3.6225597E5,1.1033456E6,3.916804E6,0E0,0E0,1.2053319E5,3.467603E4,2.1189362E5,7.13475E3,0E0,4.55844E5,0E0,0E0,0E0,0E0,0E0,0E0,0E0,0E0,0E0,0E0],"parents":[2147483647,0,0,1,1,2,2,3,3,4,4,5,5,6,6,9,9,10,10,11,11,12,12,14,14],"right_children":[2,4,6,8,10,12,14,-1,-1,16,18,20,22,-1,24,-1,-1,-1,-1,-1,-1,-1,-1,-1,-1],"split_conditions":[1.3487029E3,9.593177E-1,8.9524716E-1,7.521497E-1,3.03E2,1.36091E4,5.51075E2,-5.755255E1,-3.4020947E1,8.169991E2,7.017E2,1.238966E4,3.38E1,1.3768858E2,4.45E2,-2.9334415E1,-1.127468E1,1.0299506E1,-3.541219E0,-1.3854126E0,2.664444E1,-3.6846188E1,-9.890119E0,3.2154278E1,5.8995632E1],"split_indices":[28,29,29,29,7,13,18,0,0,28,0,13,3,0,5,0,0,0,0,0,0,0,0,0,0],"split_type":[0,0,0,0,0,0,0,0,0,0,0,0,0,0,0,0,0,0,0,0,0,0,0,0,0],"sum_hessian":[1.16E2,5.4E1,6.2E1,2.9E1,2.5E1,2.2E1,4E1,2.1E1,8E0,1.8E1,7E0,1.1E1,1.1E1,5E0,3.5E1,7E0,1.1E1,5E0,2E0,8E0,3E0,1E1,1E0,1.8E1,1.7E1],"tree_param":{"num_deleted":"0","num_feature":"30","num_nodes":"25","size_leaf_vector":"1"}},{"base_weights":[9.075634E0,-2.5536809E2,3.0273392E2,-4.2822067E2,-2.8243778E1,-5.1866695E1,5.674978E2,-4.610548E2,-1.9815222E2,1.0218395E2,-2.601893E2,3.201129E1,-2.2362408E2,4.048199E2,9.8459435E1,-4.7403446E1,-1.9055315E1,-1.9733927E0,-2.8242788E1,1.971365E1,-1.2057722E1,-3.6002926E1,-1.336245E1,-1.7476194E1,1.0907706E1,-2.392123E1,-5.72533E0,9.747413E0,5.0185326E1],"categories":[],"categories_nodes":[],"categories_segments":[],"categories_sizes":[],"default_left":[0,0,0,0,0,0,0,0,0,0,0,0,0,0,0,0,0,0,0,0,0,0,0,0,0,0,0,0,0],"id":7,"left_children":[1,3,5,7,9,11,13,15,17,19,21,23,25,27,-1,-1,-1,-1,-1,-1,-1,-1,-1,-1,-1,-1,-1,-1,-1],"loss_changes":[8.852447E6,2.3434465E6,5.0992485E6,1.65481E5,8.433947E5,3.5291844E5,1.704841E6,1.149E4,8.46445E4,4.045015E5,7.825344E4,2.8995988E5,7.0517188E3,6.6682925E5,0E0,0E0,0E0,0E0,0E0,0E0,0E0,0E0,0E0,0E0,0E0,0E0,0E0,0E0,0E0],"parents":[2147483647,0,0,1,1,2,2,3,3,4,4,5,5,6,6,7,7,8,8,9,9,10,10,11,11,12,12,13,13],"right_children":[2,4,6,8,10,12,14,16,18,20,22,24,26,28,-1,-1,-1,-1,-1,-1,-1,-1,-1,-1,-1,-1,-1,-1,-1],"split_conditions":[1.0821328E0,2.544E2,4.31814E3,9.593177E-1,1.7492E3,1.9601329E-1,2.1659868E0,2.4741914E3,1.5E1,1.0620667E3,8.64E2,3.7745905E2,3.2140796E0,1.2696073E3,9.8459435E1,-4.7403446E1,-1.9055315E1,-1.9733927E0,-2.8242788E1,1.971365E1,-1.2057722E1,-3.6002926E1,-1.336245E1,-1.7476194E1,1.0907706E1,-2.392123E1,-5.72533E0,9.747413E0,5.0185326E1],"split_indices":[29,5,13,29,22,27,14,12,6,15,17,12,14,12,0,0,0,0,0,0,0,0,0,0,0,0,0,0,0],"split_type":[0,0,0,0,0,0,0,0,0,0,0,0,0,0,0,0,0,0,0,0,0,0,0,0,0,0,0,0,0],"sum_hessian":[1.12E2,5.9E1,5.3E1,3.3E1,2.6E1,2.3E1,3E1,2.8E1,5E0,1.7E1,9E0,1.6E1,7E0,2.3E1,7E0,2.6E1,2E0,2E0,3E0,1.2E1,5E0,4E0,5E0,4E0,1.2E1,6E0,1E0,6E0,1.7E1],"tree_param":{"num_deleted":"0","num_feature":"30","num_nodes":"29","size_leaf_vector":"1"}},{"base_weights":[1.4945919E1,-2.1220183E2,3.800326E2,-3.7696365E2,8.8567406E1,1.6657285E2,8.1007794E2,-4.3927597E2,-2.4870557E2,-2.2575268E1,3.5535315E2,-9.295834E1,2.4295992E2,5.4004047E2,1.2421447E2,-5.004289E1,-3.2927395E1,-3.3419872E1,-1.4689117E1,-1.1527677E1,8.165391E0,3.8746483E1,6.528577E0,-2.5267767E1,2.3943685E-1,1.3033652E1,3.9886135E1,2.2387598E1,5.8542416E1],"categories":[],"categories_nodes":[],"categories_segments":[],"categories_sizes":[],"default_left":[0,0,0,0,0,0,0,0,0,0,0,0,0,0,0,0,0,0,0,0,0,0,0,0,0,0,0,0,0],"id":8,"left_children":[1,3,5,7,9,11,13,15,17,19,21,23,25,27,-1,-1,-1,-1,-1,-1,-1,-1,-1,-1,-1,-1,-1,-1,-1],"loss_changes":[9.94915E6,3.700478E6,4.087741E6,2.74369E5,8.086069E5,6.5697944E5,1.079305E6,4.3757E4,1.07589E5,2.0265681E5,4.9220375E4,1.2244234E5,3.8696762E5,2.677325E4,0E0,0E0,0E0,0E0,0E0,0E0,0E0,0E0,0E0,0E0,0E0,0E0,0E0,0E0,0E0],"parents":[2147483647,0,0,1,1,2,2,3,3,4,4,5,5,6,6,7,7,8,8,9,9,10,10,11,11,12,12,13,13],"right_children":[2,4,6,8,10,12,14,16,18,20,22,24,26,28,-1,-1,-1,-1,-1,-1,-1,-1,-1,-1,-1,-1,-1,-1,-1],"split_conditions":[1.6311587E3,1.2792369E0,1.183893E0,7.521497E-1,1.3487029E3,7.572044E-1,2.5522795E3,1.132434E3,1E0,1.1161804E3,1.1657E3,-6.822889E-1,1.187429E4,1.2064838E0,1.2421447E2,-5.004289E1,-3.2927395E1,-3.3419872E1,-1.4689117E1,-1.1527677E1,8.165391E0,3.8746483E1,6.528577E0,-2.5267767E1,2.3943685E-1,1.3033652E1,3.9886135E1,2.2387598E1,5.8542416E1],"split_indices":[28,29,29,29,28,29,28,28,10,28,1,14,13,29,0,0,0,0,0,0,0,0,0,0,0,0,0,0,0],"split_type":[0,0,0,0,0,0,0,0,0,0,0,0,0,0,0,0,0,0,0,0,0,0,0,0,0,0,0,0,0],"sum_hessian":[1.18E2,7.3E1,4.5E1,4.7E1,2.6E1,3.1E1,1.4E1,3E1,1.7E1,1.9E1,7E0,7E0,2.4E1,1E1,4E0,1.7E1,1.3E1,8E0,9E0,1E1,9E0,6E0,1E0,2E0,5E0,1.5E1,9E0,2E0,8E0],"tree_param":{"num_deleted":"0","num_feature":"30","num_nodes":"29","size_leaf_vector":"1"}},{"base_weights":[3.320407E1,-1.749057E2,3.6901553E2,-3.2441284E2,5.258574E1,2.2229294E2,9.6381165E2,-3.558327E2,-1.3068948E2,-5.110456E1,3.5708344E2,-9.802283E1,3.216551E2,1.2873416E2,5.874899E1,-1.5051216E1,-3.6876186E1,-1.5203099E1,-4.4443316E0,-1.3130399E1,7.430504E0,1.152494E1,4.1848656E1,-1.9382223E1,-1.8528442E-1,1.0362697E1,3.8350597E1],"categories":[],"categories_nodes":[],"categories_segments":[],"categories_sizes":[],"default_left":[0,0,0,0,0,0,0,0,0,0,0,0,0,0,0,0,0,0,0,0,0,0,0,0,0,0,0],"id":9,"left_children":[1,3,5,7,9,11,13,15,17,19,21,23,25,-1,-1,-1,-1,-1,-1,-1,-1,-1,-1,-1,-1,-1,-1],"loss_changes":[8.590592E6,2.6019402E6,3.8874425E6,2.334875E5,9.970257E5,1.2727928E6,3.394615E5,4.8027E4,7.9682188E3,2.5114323E5,7.056456E4,9.177115E4,3.6481525E5,0E0,0E0,0E0,0E0,0E0,0E0,0E0,0E0,0E0,0E0,0E0,0E0,0E0,0E0],"parents":[2147483647,0,0,1,1,2,2,3,3,4,4,5,5,6,6,7,7,8,8,9,9,10,10,11,11,12,12],"right_children":[2,4,6,8,10,12,14,16,18,20,22,24,26,-1,-1,-1,-1,-1,-1,-1,-1,-1,-1,-1,-1,-1,-1],"split_conditions":[1.6311587E3,1.2792369E0,1.3253618E0,8.4993105E0,1.3487029E3,7.461287E-1,3.02E1,3.48E3,8.21135E3,1.1161804E3,6.7802E2,4.5802426E-1,2.14E2,1.2873416E2,5.874899E1,-1.5051216E1,-3.6876186E1,-1.5203099E1,-4.4443316E0,-1.3130399E1,7.430504E0,1.152494E1,4.1848656E1,-1.9382223E1,-1.8528442E-1,1.0362697E1,3.8350597E1],"split_indices":[28,29,29,23,28,29,3,25,13,28,26,29,7,0,0,0,0,0,0,0,0,0,0,0,0,0,0],"split_type":[0,0,0,0,0,0,0,0,0,0,0,0,0,0,0,0,0,0,0,0,0,0,0,0,0,0,0],"sum_hessian":[1.21E2,7.5E1,4.6E1,4.5E1,3E1,3.8E1,8E0,3.8E1,7E0,2.3E1,7E0,9E0,2.9E1,3E0,5E0,3E0,3.5E1,5E0,2E0,1.4E1,9E0,2E0,5E0,4E0,5E0,7E0,2.2E1],"tree_param":{"num_deleted":"0","num_feature":"30","num_nodes":"27","size_leaf_vector":"1"}},{"base_weights":[1.9591055E1,-2.0114758E2,2.2984035E2,-3.145243E2,-5.224285E1,-2.1151625E2,3.6647766E2,-3.8853428E1,-2.2304071E2,-1.1447168E2,5.4335484E1,-2.6099393E2,-5.0466602E1,2.8852594E2,1.19079094E2,-2.840955E1,-1.4578735E1,-1.661637E1,-6.647097E0,2.3262592E-1,1.162813E1,-2.9101154E1,-1.2820581E1,-1.282845E0,-7.1282554E0,3.393531E1,6.653019E0],"categories":[],"categories_nodes":[],"categories_segments":[],"categories_sizes":[],"default_left":[0,0,0,0,0,0,0,0,0,0,0,0,0,0,0,0,0,0,0,0,0,0,0,0,0,0,0],"id":10,"left_children":[1,3,5,7,9,11,13,-1,15,17,19,21,23,25,-1,-1,-1,-1,-1,-1,-1,-1,-1,-1,-1,-1,-1],"loss_changes":[5.89391E6,1.03027225E6,3.9973915E6,1.5031575E5,1.9192272E5,1.1432231E5,2.8692575E6,0E0,4.3482875E4,3.361747E4,3.5168793E4,1.0522375E4,3.0029248E3,5.0774325E5,0E0,0E0,0E0,0E0,0E0,0E0,0E0,0E0,0E0,0E0,0E0,0E0,0E0],"parents":[2147483647,0,0,1,1,2,2,3,3,4,4,5,5,6,6,8,8,9,9,10,10,11,11,12,12,13,13],"right_children":[2,4,6,8,10,12,14,-1,16,18,20,22,24,26,-1,-1,-1,-1,-1,-1,-1,-1,-1,-1,-1,-1,-1],"split_conditions":[1.3487029E3,1.4308399E-1,-3.0332986E-1,-2.533992E-1,3.02E2,-6.8411875E-1,8E2,-3.8853428E1,1E0,8.169991E2,2.3604283E0,1.1317333E3,3.23E1,2.398E2,1.19079094E2,-2.840955E1,-1.4578735E1,-1.661637E1,-6.647097E0,2.3262592E-1,1.162813E1,-2.9101154E1,-1.2820581E1,-1.282845E0,-7.1282554E0,3.393531E1,6.653019E0],"split_indices":[28,14,14,14,7,14,0,0,10,28,14,15,3,2,0,0,0,0,0,0,0,0,0,0,0,0,0],"split_type":[0,0,0,0,0,0,0,0,0,0,0,0,0,0,0,0,0,0,0,0,0,0,0,0,0,0,0],"sum_hessian":[1.25E2,6.1E1,6.4E1,3.4E1,2.7E1,1.5E1,4.9E1,1.7E1,1.7E1,1.7E1,1E1,1.1E1,4E0,4.6E1,3E0,8E0,9E0,7E0,1E1,6E0,4E0,8E0,3E0,2E0,2E0,3.7E1,9E0],"tree_param":{"num_deleted":"0","num_feature":"30","num_nodes":"27","size_leaf_vector":"1"}},{"base_weights":[-2.2908775E1,-2.0917737E2,1.5111972E2,-3.2084756E2,-8.1487976E1,-8.170453E1,3.247171E2,-3.8161705E1,-2.2847908E2,-1.9987494E2,-1.1190328E1,-2.0443806E2,3.8098362E1,2.0687704E2,4.303879E2,-2.6884418E1,-1.0205306E1,-2.2861414E1,-5.6612105E0,-5.9072556E0,9.441956E0,-7.3959965E-1,-2.202419E1,-2.6364958E0,2.0584791E1,1.2880104E1,3.8411446E1,5.1206966E1,1.9529318E1],"categories":[],"categories_nodes":[],"categories_segments":[],"categories_sizes":[],"default_left":[0,0,0,0,0,0,0,0,0,0,0,0,0,0,0,0,0,0,0,0,0,0,0,0,0,0,0,0,0],"id":11,"left_children":[1,3,5,7,9,11,13,-1,15,17,19,21,23,25,27,-1,-1,-1,-1,-1,-1,-1,-1,-1,-1,-1,-1,-1,-1],"loss_changes":[3.6946238E6,7.58105E5,2.411174E6,7.559075E4,2.2246614E5,3.9008844E5,3.343395E5,0E0,4.4008438E4,2.823025E4,9.6600664E4,3.8853312E4,1.5681886E5,1.9960938E5,2.2644625E5,0E0,0E0,0E0,0E0,0E0,0E0,0E0,0E0,0E0,0E0,0E0,0E0,0E0,0E0],"parents":[2147483647,0,0,1,1,2,2,3,3,4,4,5,5,6,6,8,8,9,9,10,10,11,11,12,12,13,13,14,14],"right_children":[2,4,6,8,10,12,14,-1,16,18,20,22,24,26,28,-1,-1,-1,-1,-1,-1,-1,-1,-1,-1,-1,-1,-1,-1],"split_conditions":[1.3487029E3,9.593177E-1,9.2636234E-1,1.0555875E3,8.169991E2,-6.592478E-1,1.217495E0,-3.8161705E1,6.903183E-1,3.2140796E0,2.42905E0,3.06E1,2.5522795E3,2.3844788E3,3.175E1,-2.6884418E1,-1.0205306E1,-2.2861414E1,-5.6612105E0,-5.9072556E0,9.441956E0,-7.3959965E-1,-2.202419E1,-2.6364958E0,2.0584791E1,1.2880104E1,3.8411446E1,5.1206966E1,1.9529318E1],"split_indices":[28,29,29,28,28,14,29,0,29,14,14,3,28,28,4,0,0,0,0,0,0,0,0,0,0,0,0,0,0],"split_type":[0,0,0,0,0,0,0,0,0,0,0,0,0,0,0,0,0,0,0,0,0,0,0,0,0,0,0,0,0],"sum_hessian":[1.12E2,5.4E1,5.8E1,2.8E1,2.6E1,2.5E1,3.3E1,1.5E1,1.3E1,9E0,1.7E1,1.2E1,1.3E1,1.7E1,1.6E1,9E0,4E0,7E0,2E0,1.2E1,5E0,1E0,1.1E1,1E1,3E0,1.3E1,4E0,1.1E1,5E0],"tree_param":{"num_deleted":"0","num_feature":"30","num_nodes":"29","size_leaf_vector":"1"}},{"base_weights":[1.7507805E1,1.0630763E2,-1.869721E1,-1.6903598E2,1.5111554E2,-3.0089246E2,-7.181153E1,-1.11985214E2,2.8213712E2,-3.0748993E1,-6.7977753E0,-1.1868458E1,4.9768825E0,-2.4197968E1,-1.5990143E0,1.6434187E1,3.74046E1],"categories":[],"categories_nodes":[],"categories_segments":[],"categories_sizes":[],"default_left":[0,0,0,0,0,0,0,0,0,0,0,0,0,0,0,0,0],"id":12,"left_children":[1,-1,3,5,7,9,11,13,15,-1,-1,-1,-1,-1,-1,-1,-1],"loss_changes":[4.5246005E6,0E0,2.9869588E6,7.732125E5,1.9275485E6,1.90505E4,2.167639E5,2.3322842E5,3.39106E5,0E0,0E0,0E0,0E0,0E0,0E0,0E0,0E0],"parents":[2147483647,0,0,2,2,3,3,4,4,5,5,6,6,7,7,8,8],"right_children":[2,-1,4,6,8,10,12,14,16,-1,-1,-1,-1,-1,-1,-1,-1],"split_conditions":[2.4286816E0,1.0630763E2,1.3487029E3,9.056151E-1,8.10189E-1,5.7E1,3.03E2,1.8337051E3,1.1968725E0,-3.0748993E1,-6.7977753E0,-1.1868458E1,4.9768825E0,-2.4197968E1,-1.5990143E0,1.6434187E1,3.74046E1],"split_indices":[19,0,28,29,29,6,7,28,29,0,0,0,0,0,0,0,0],"split_type":[0,0,0,0,0,0,0,0,0,0,0,0,0,0,0,0,0],"sum_hessian":[1.18E2,3E0,1.15E2,6.1E1,5.4E1,2.5E1,3.6E1,1.8E1,3.6E1,2.4E1,1E0,2.6E1,1E1,7E0,1.1E1,1.7E1,1.9E1],"tree_param":{"num_deleted":"0","num_feature":"30","num_nodes":"17","size_leaf_vector":"1"}},{"base_weights":[-1.20724325E1,-1.9863022E2,1.25279945E2,-2.66028E2,-2.3633505E1,-6.8741135E1,2.8026346E2,-2.7525183E2,-7.2815285E0,3.1723633E1,-6.406311E1,-1.5734523E2,-1.9056076E1,2.1228374E2,4.7572216E1,-3.2129803E1,-2.2198917E1,8.528803E0,-2.977167E0,-2.5254548E0,-7.9258304E0,-1.7733562E1,-4.492566E0,-5.1185117E0,5.251416E0,7.2086434E0,2.7877806E1],"categories":[],"categories_nodes":[],"categories_segments":[],"categories_sizes":[],"default_left":[0,0,0,0,0,0,0,0,0,0,0,0,0,0,0,0,0,0,0,0,0,0,0,0,0,0,0],"id":13,"left_children":[1,3,5,7,9,11,13,15,-1,17,19,21,23,25,-1,-1,-1,-1,-1,-1,-1,-1,-1,-1,-1,-1,-1],"loss_changes":[3.0229108E6,5.8343275E5,2.0640302E6,4.411525E4,3.5603324E4,1.3347292E5,4.03927E5,1.206175E4,0E0,2.5596875E4,3.3056992E3,1.67535E4,5.0977082E4,2.5957362E5,0E0,0E0,0E0,0E0,0E0,0E0,0E0,0E0,0E0,0E0,0E0,0E0,0E0],"parents":[2147483647,0,0,1,1,2,2,3,3,4,4,5,5,6,6,7,7,9,9,10,10,11,11,12,12,13,13],"right_children":[2,4,6,8,10,12,14,16,-1,18,20,22,24,26,-1,-1,-1,-1,-1,-1,-1,-1,-1,-1,-1,-1,-1],"split_conditions":[9.2636234E-1,1.8337051E3,1.3487029E3,9.056151E-1,6.83E2,8.169991E2,2.3844788E3,1.0555875E3,-7.2815285E0,2.0313686E-1,2.387E2,1.5736924E0,1.4815547E0,1.1476513E0,4.7572216E1,-3.2129803E1,-2.2198917E1,8.528803E0,-2.977167E0,-2.5254548E0,-7.9258304E0,-1.7733562E1,-4.492566E0,-5.1185117E0,5.251416E0,7.2086434E0,2.7877806E1],"split_indices":[29,28,28,29,0,28,28,28,0,20,2,29,29,29,0,0,0,0,0,0,0,0,0,0,0,0,0],"split_type":[0,0,0,0,0,0,0,0,0,0,0,0,0,0,0,0,0,0,0,0,0,0,0,0,0,0,0],"sum_hessian":[1.16E2,4.9E1,6.7E1,3.5E1,1.4E1,3E1,3.7E1,3.3E1,2E0,6E0,8E0,1E1,2E1,2.9E1,8E0,1.5E1,1.8E1,3E0,3E0,3E0,5E0,8E0,2E0,1.4E1,6E0,1E1,1.9E1],"tree_param":{"num_deleted":"0","num_feature":"30","num_nodes":"27","size_leaf_vector":"1"}},{"base_weights":[-1.3896059E0,-1.0228725E2,2.0820267E2,-2.1195609E2,2.7389502E1,1.2107953E2,5.8918274E2,-2.9554401E1,-1.5363641E2,-1.1689434E2,1.3763658E2,-7.231583E1,1.759289E2,6.7024376E1,2.5768692E1,-2.1263483E1,-6.920479E0,-1.3179622E1,-3.551419E0,6.76724E0,2.5161486E1,-8.12284E0,-4.9639282E-1,9.4771185E0,2.7798292E1],"categories":[],"categories_nodes":[],"categories_segments":[],"categories_sizes":[],"default_left":[0,0,0,0,0,0,0,0,0,0,0,0,0,0,0,0,0,0,0,0,0,0,0,0,0],"id":14,"left_children":[1,3,5,7,9,11,13,-1,15,17,19,21,23,-1,-1,-1,-1,-1,-1,-1,-1,-1,-1,-1,-1],"loss_changes":[2.5378328E6,1.1577468E6,1.223157E6,1.6908588E5,6.205501E5,3.627736E5,1.53865E4,0E0,1.24762E5,1.5935547E4,1.5840934E5,4.3990156E3,1.889995E5,0E0,0E0,0E0,0E0,0E0,0E0,0E0,0E0,0E0,0E0,0E0,0E0],"parents":[2147483647,0,0,1,1,2,2,3,3,4,4,5,5,6,6,8,8,9,9,10,10,11,11,12,12],"right_children":[2,4,6,8,10,12,14,-1,16,18,20,22,24,-1,-1,-1,-1,-1,-1,-1,-1,-1,-1,-1,-1],"split_conditions":[1.8808054E3,1.0821171E0,1.2635273E0,1.0555875E3,1.0555875E3,7.572044E-1,1.31E1,-2.9554401E1,6.903183E-1,1.5736924E0,1.5756614E0,9.6E0,2.3844788E3,6.7024376E1,2.5768692E1,-2.1263483E1,-6.920479E0,-1.3179622E1,-3.551419E0,6.76724E0,2.5161486E1,-8.12284E0,-4.9639282E-1,9.4771185E0,2.7798292E1],"split_indices":[28,29,29,28,28,29,4,0,29,29,29,9,28,0,0,0,0,0,0,0,0,0,0,0,0],"split_type":[0,0,0,0,0,0,0,0,0,0,0,0,0,0,0,0,0,0,0,0,0,0,0,0,0],"sum_hessian":[1.18E2,8E1,3.8E1,4.3E1,3.7E1,3.2E1,6E0,1.6E1,2.7E1,1.6E1,2.1E1,7E0,2.5E1,4E0,2E0,1.5E1,1.2E1,1.3E1,3E0,1.4E1,7E0,6E0,1E0,1.5E1,1E1],"tree_param":{"num_deleted":"0","num_feature":"30","num_nodes":"25","size_leaf_vector":"1"}},{"base_weights":[1.2325167E1,9.07712E1,-1.920003E1,-1.1427207E2,8.855172E1,6.9176855E0,-1.4723842E2,-9.090129E1,1.5363281E2,-6.8262277E0,2.1193317E1,-1.2219642E1,-2.764564E1,-1.3293248E1,-2.3875296E0,1.907381E1,-2.2799934E1],"categories":[],"categories_nodes":[],"categories_segments":[],"categories_sizes":[],"default_left":[0,0,0,0,0,0,0,0,0,0,0,0,0,0,0,0,0],"id":15,"left_children":[1,-1,3,5,7,9,11,13,15,-1,-1,-1,-1,-1,-1,-1,-1],"loss_changes":[3.3200155E6,0E0,1.1779554E6,2.4472469E5,6.4463125E5,2.3024983E5,1.2154025E5,3.9083938E4,6.09911E5,0E0,0E0,0E0,0E0,0E0,0E0,0E0,0E0],"parents":[2147483647,0,0,2,2,3,3,4,4,5,5,6,6,7,7,8,8],"right_children":[2,-1,4,6,8,10,12,14,16,-1,-1,-1,-1,-1,-1,-1,-1],"split_conditions":[3.02E1,9.07712E1,6.4133005E0,4.246E3,1.6E2,3.26E1,1.1703E3,7.51285E3,1.594931E4,-6.8262277E0,2.1193317E1,-1.2219642E1,-2.764564E1,-1.3293248E1,-2.3875296E0,1.907381E1,-2.2799934E1],"split_indices":[3,0,23,25,7,3,18,13,13,0,0,0,0,0,0,0,0],"split_type":[0,0,0,0,0,0,0,0,0,0,0,0,0,0,0,0,0],"sum_hessian":[1.16E2,3E0,1.13E2,6E1,5.3E1,1.3E1,4.7E1,1.4E1,3.9E1,1E1,3E0,4.1E1,6E0,8E0,6E0,3.6E1,3E0],"tree_param":{"num_deleted":"0","num_feature":"30","num_nodes":"17","size_leaf_vector":"1"}},{"base_weights":[-8.6352146E-1,-7.846196E1,2.1590671E2,-1.6558096E2,3.503627E1,6.6351685E1,4.2224704E2,-2.6104187E1,-1.1565926E2,-3.76643E1,1.5197032E2,2.1798592E1,7.4571967E0,2.0309143E1,5.4977367E1,-1.6738428E1,-5.3472733E0,-4.0308228E-1,-8.953517E0,6.6209216E0,2.5528362E1,-2.6780274E0,9.974594E0],"categories":[],"categories_nodes":[],"categories_segments":[],"categories_sizes":[],"default_left":[0,0,0,0,0,0,0,0,0,0,0,0,0,0,0,0,0,0,0,0,0,0,0],"id":16,"left_children":[1,3,5,7,9,11,13,-1,15,17,19,-1,21,-1,-1,-1,-1,-1,-1,-1,-1,-1,-1],"loss_changes":[1.850433E6,8.0671744E5,8.669009E5,1.8902438E5,3.1176606E5,1.59122E5,2.2372375E5,0E0,9.398069E4,3.976484E4,1.0714156E5,0E0,4.690749E4,0E0,0E0,0E0,0E0,0E0,0E0,0E0,0E0,0E0,0E0],"parents":[2147483647,0,0,1,1,2,2,3,3,4,4,5,5,6,6,8,8,9,9,10,10,12,12],"right_children":[2,4,6,8,10,12,14,-1,16,18,20,-1,22,-1,-1,-1,-1,-1,-1,-1,-1,-1,-1],"split_conditions":[1.9203948E3,1.0821171E0,1.0830731E0,1.0555875E3,1.3487029E3,2.19E2,2.3844788E3,-2.6104187E1,6.903183E-1,2.41695E1,1.5155419E0,2.1798592E1,2E0,2.0309143E1,5.4977367E1,-1.6738428E1,-5.3472733E0,-4.0308228E-1,-8.953517E0,6.6209216E0,2.5528362E1,-2.6780274E0,9.974594E0],"split_indices":[28,29,29,28,28,7,28,0,29,21,29,0,11,0,0,0,0,0,0,0,0,0,0],"split_type":[0,0,0,0,0,0,0,0,0,0,0,0,0,0,0,0,0,0,0,0,0,0,0],"sum_hessian":[1.08E2,8E1,2.8E1,4.5E1,3.5E1,1.7E1,1.1E1,1.4E1,3.1E1,2.2E1,1.3E1,4E0,1.3E1,5E0,6E0,1.6E1,1.5E1,1.4E1,8E0,8E0,5E0,1E1,3E0],"tree_param":{"num_deleted":"0","num_feature":"30","num_nodes":"23","size_leaf_vector":"1"}},{"base_weights":[-4.0773077E0,-1.27574425E2,1.1537119E2,-1.8848529E2,7.373432E0,-1.9578215E1,2.6030255E2,-2.6570852E1,-1.5388727E2,1.1257847E1,-2.8186474E1,-8.68878E1,4.492364E1,1.9536281E2,6.1733532E1,-1.9373823E1,-1.0112041E1,2.9641042E0,-5.1909304E0,-1.0570079E1,-4.0236208E-1,-3.1783935E-1,9.943573E0,1.3259448E1,3.2001724E1],"categories":[],"categories_nodes":[],"categories_segments":[],"categories_sizes":[],"default_left":[0,0,0,0,0,0,0,0,0,0,0,0,0,0,0,0,0,0,0,0,0,0,0,0,0],"id":17,"left_children":[1,3,5,7,9,11,13,-1,15,-1,17,19,21,23,-1,-1,-1,-1,-1,-1,-1,-1,-1,-1,-1],"loss_changes":[1.7406492E6,4.7813775E5,1.1786004E6,6.598175E4,7.4253734E4,1.4283428E5,5.517786E5,0E0,4.3493438E4,0E0,2.2116129E4,2.4517484E4,4.489247E4,1.6100069E5,0E0,0E0,0E0,0E0,0E0,0E0,0E0,0E0,0E0,0E0,0E0],"parents":[2147483647,0,0,1,1,2,2,3,3,4,4,5,5,6,6,8,8,10,10,11,11,12,12,13,13],"right_children":[2,4,6,8,10,12,14,-1,16,-1,18,20,22,24,-1,-1,-1,-1,-1,-1,-1,-1,-1,-1,-1],"split_conditions":[9.593177E-1,1.8337051E3,1.4704116E3,7.531949E2,1.983E2,1.1161804E3,7.9E0,-2.6570852E1,4.8578227E-1,1.1257847E1,2.19E2,1.5736924E0,1.4331354E0,1.3253618E0,6.1733532E1,-1.9373823E1,-1.0112041E1,2.9641042E0,-5.1909304E0,-1.0570079E1,-4.0236208E-1,-3.1783935E-1,9.943573E0,1.3259448E1,3.2001724E1],"split_indices":[29,28,28,28,2,28,9,0,29,0,7,29,29,29,0,0,0,0,0,0,0,0,0,0,0],"split_type":[0,0,0,0,0,0,0,0,0,0,0,0,0,0,0,0,0,0,0,0,0,0,0,0,0],"sum_hessian":[1.16E2,5.7E1,5.9E1,3.9E1,1.8E1,3.1E1,2.8E1,1E1,2.9E1,4E0,1.4E1,1.5E1,1.6E1,2.5E1,3E0,1.5E1,1.4E1,4E0,1E1,1.2E1,3E0,9E0,7E0,1.8E1,7E0],"tree_param":{"num_deleted":"0","num_feature":"30","num_nodes":"25","size_leaf_vector":"1"}},{"base_weights":[-1.9984713E0,-1.2217596E2,1.1617598E2,-1.6679608E2,-2.1808542E1,6.437709E1,4.3834682E1,-2.0386381E1,-1.15096825E2,3.8773724E1,-4.621462E1,-1.6602882E1,1.3997346E2,-1.5642911E1,-7.081615E0,8.953311E0,-4.183004E0,1.3149904E-1,-6.5357957E0,-4.9234533E0,4.053121E0,3.2136352E0,1.9210667E1],"categories":[],"categories_nodes":[],"categories_segments":[],"categories_sizes":[],"default_left":[0,0,0,0,0,0,0,0,0,0,0,0,0,0,0,0,0,0,0,0,0,0,0],"id":18,"left_children":[1,3,5,7,9,11,-1,-1,13,15,17,19,21,-1,-1,-1,-1,-1,-1,-1,-1,-1,-1],"loss_changes":[1.6616152E6,2.5610994E5,9.56378E5,5.3191E4,2.9884844E4,3.2065716E5,0E0,0E0,2.3696516E4,2.8293559E4,1.2824201E4,5.046941E4,1.456175E5,0E0,0E0,0E0,0E0,0E0,0E0,0E0,0E0,0E0,0E0],"parents":[2147483647,0,0,1,1,2,2,3,3,4,4,5,5,8,8,9,9,10,10,11,11,12,12],"right_children":[2,4,6,8,10,12,-1,-1,14,16,18,20,22,-1,-1,-1,-1,-1,-1,-1,-1,-1,-1],"split_conditions":[9.593177E-1,1.8337051E3,2.3844788E3,5.0932807E-1,1.0289E3,1.3487029E3,4.3834682E1,-2.0386381E1,9.5365344E2,8.71759E-1,1.4287E3,3.03E2,1.1476513E0,-1.5642911E1,-7.081615E0,8.953311E0,-4.183004E0,1.3149904E-1,-6.5357957E0,-4.9234533E0,4.053121E0,3.2136352E0,1.9210667E1],"split_indices":[29,28,28,29,1,28,0,0,28,24,22,7,29,0,0,0,0,0,0,0,0,0,0],"split_type":[0,0,0,0,0,0,0,0,0,0,0,0,0,0,0,0,0,0,0,0,0,0,0],"sum_hessian":[1.15E2,5.7E1,5.8E1,3.9E1,1.8E1,5.1E1,7E0,2.1E1,1.8E1,5E0,1.3E1,2.5E1,2.6E1,8E0,1E1,3E0,2E0,4E0,9E0,1.6E1,9E0,9E0,1.7E1],"tree_param":{"num_deleted":"0","num_feature":"30","num_nodes":"23","size_leaf_vector":"1"}},{"base_weights":[-1.0637662E0,-1.1586604E2,6.500143E1,-1.8100432E2,-7.683246E1,-2.641136E1,1.22467415E2,-1.95146E2,-5.938894E0,-1.0236489E2,-1.1556783E1,-1.3556905E1,-8.602049E0,1.6595255E2,-1.0946045E1,-2.0262865E1,-5.2677126E0,-5.286549E0,-1.1980281E1,6.706266E0,-4.3599863E0,3.6132627E0,-7.2888665E0,5.685756E-1,2.0009237E1,3.775E0,-4.0012817E0],"categories":[],"categories_nodes":[],"categories_segments":[],"categories_sizes":[],"default_left":[0,0,0,0,0,0,0,0,0,0,0,0,0,0,0,0,0,0,0,0,0,0,0,0,0,0,0],"id":19,"left_children":[1,3,5,7,9,11,13,15,-1,17,19,-1,21,23,25,-1,-1,-1,-1,-1,-1,-1,-1,-1,-1,-1,-1],"loss_changes":[8.7215706E5,9.288131E4,3.8671275E5,1.4208156E4,4.548308E4,5.5210504E4,2.6288412E5,3.1846562E3,0E0,1.0929922E4,2.5596805E4,0E0,7.7405516E4,1.848925E5,1.8495725E4,0E0,0E0,0E0,0E0,0E0,0E0,0E0,0E0,0E0,0E0,0E0,0E0],"parents":[2147483647,0,0,1,1,2,2,3,3,4,4,5,5,6,6,7,7,9,9,10,10,12,12,13,13,14,14],"right_children":[2,4,6,8,10,12,14,16,-1,18,20,-1,22,24,26,-1,-1,-1,-1,-1,-1,-1,-1,-1,-1,-1,-1],"split_conditions":[8.4219986E-1,-7.016448E-1,1.37E2,4.845879E-1,2.0034768E3,6.108E2,9.196226E0,7.968E2,-5.938894E0,3E0,6.287E2,-1.3556905E1,7.275E2,5.767804E2,1E0,-2.0262865E1,-5.2677126E0,-5.286549E0,-1.1980281E1,6.706266E0,-4.3599863E0,3.6132627E0,-7.2888665E0,5.685756E-1,2.0009237E1,3.775E0,-4.0012817E0],"split_indices":[29,14,5,29,12,0,23,0,0,9,0,0,0,12,11,0,0,0,0,0,0,0,0,0,0,0,0],"split_type":[0,0,0,0,0,0,0,0,0,0,0,0,0,0,0,0,0,0,0,0,0,0,0,0,0,0,0],"sum_hessian":[1.13E2,4.1E1,7.2E1,1.4E1,2.7E1,2.8E1,4.4E1,1.2E1,2E0,1.9E1,8E0,3E0,2.5E1,3.3E1,1.1E1,1.1E1,1E0,6E0,1.3E1,2E0,6E0,1.5E1,1E1,6E0,2.7E1,4E0,7E0],"tree_param":{"num_deleted":"0","num_feature":"30","num_nodes":"27","size_leaf_vector":"1"}},{"base_weights":[7.3146777E0,-5.3620705E1,1.689457E2,-9.608787E1,7.2357445E1,6.001864E1,3.0470773E2,-1.7553227E2,-7.033279E1,1.7377366E0,1.5692732E2,1.3597278E2,-2.1937366E1,2.1742628E2,5.522642E1,-2.8466218E0,-1.840037E1,-9.847023E0,-1.4840106E0,2.284169E0,-3.6596925E0,1.7293673E1,6.1926475E0,1.5198623E1,4.7946005E0,-5.6695943E0,4.437448E0,2.5636322E1,1.1164195E1],"categories":[],"categories_nodes":[],"categories_segments":[],"categories_sizes":[],"default_left":[0,0,0,0,0,0,0,0,0,0,0,0,0,0,0,0,0,0,0,0,0,0,0,0,0,0,0,0,0],"id":20,"left_children":[1,3,5,7,9,11,13,15,17,19,21,23,25,27,-1,-1,-1,-1,-1,-1,-1,-1,-1,-1,-1,-1,-1,-1,-1],"loss_changes":[1.1515485E6,4.616971E5,4.5493288E5,1.1860456E5,1.3111788E5,1.2125595E5,1.8242262E5,1.345E4,7.66098E4,1.1353103E4,4.499703E3,6.8089688E3,2.5564904E4,2.0806125E4,0E0,0E0,0E0,0E0,0E0,0E0,0E0,0E0,0E0,0E0,0E0,0E0,0E0,0E0,0E0],"parents":[2147483647,0,0,1,1,2,2,3,3,4,4,5,5,6,6,7,7,8,8,9,9,10,10,11,11,12,12,13,13],"right_children":[2,4,6,8,10,12,14,16,18,20,22,24,26,28,-1,-1,-1,-1,-1,-1,-1,-1,-1,-1,-1,-1,-1,-1,-1],"split_conditions":[1.9203948E3,1.3970144E0,1.0830731E0,7.531949E2,3.75757E3,6.829E2,7.9E0,2.00614E3,1.0040051E0,9.3E0,1.1015E3,8.016667E2,9.7284603E-1,2.325E1,5.522642E1,-2.8466218E0,-1.840037E1,-9.847023E0,-1.4840106E0,2.284169E0,-3.6596925E0,1.7293673E1,6.1926475E0,1.5198623E1,4.7946005E0,-5.6695943E0,4.437448E0,2.5636322E1,1.1164195E1],"split_indices":[28,29,29,28,13,0,9,13,29,9,1,17,29,4,0,0,0,0,0,0,0,0,0,0,0,0,0,0,0],"split_type":[0,0,0,0,0,0,0,0,0,0,0,0,0,0,0,0,0,0,0,0,0,0,0,0,0,0,0,0,0],"sum_hessian":[1.15E2,8.4E1,3.1E1,6.3E1,2.1E1,1.8E1,1.3E1,1.4E1,4.9E1,1.2E1,9E0,9E0,9E0,1.1E1,2E0,1E0,1.3E1,3.2E1,1.7E1,8E0,4E0,7E0,2E0,7E0,2E0,6E0,3E0,7E0,4E0],"tree_param":{"num_deleted":"0","num_feature":"30","num_nodes":"29","size_leaf_vector":"1"}},{"base_weights":[-1.9385865E0,-1.7284046E1,5.6648956E1,-9.705634E1,4.969417E1,-1.4269206E2,-4.7687687E1,-6.712584E1,1.0015664E2,-1.5100247E1,-5.9234223E0,-7.2357965E0,4.660622E0,-9.587587E0,-2.4528482E0,7.394727E0,2.2438375E1],"categories":[],"categories_nodes":[],"categories_segments":[],"categories_sizes":[],"default_left":[0,0,0,0,0,0,0,0,0,0,0,0,0,0,0,0,0],"id":21,"left_children":[1,3,-1,5,7,9,11,13,15,-1,-1,-1,-1,-1,-1,-1,-1],"loss_changes":[9.9546656E5,5.978968E5,0E0,1.08097E5,3.663197E5,9.08825E3,6.3855E4,2.091714E4,1.2341175E5,0E0,0E0,0E0,0E0,0E0,0E0,0E0,0E0],"parents":[2147483647,0,0,1,1,3,3,4,4,5,5,6,6,7,7,8,8],"right_children":[2,4,-1,6,8,10,12,14,16,-1,-1,-1,-1,-1,-1,-1,-1],"split_conditions":[3.2159166E0,9.593177E-1,5.6648956E1,5.0932807E-1,1.1161804E3,7.968E2,2.3844788E3,8.169991E2,2.3844788E3,-1.5100247E1,-5.9234223E0,-7.2357965E0,4.660622E0,-9.587587E0,-2.4528482E0,7.394727E0,2.2438375E1],"split_indices":[14,29,0,29,28,0,28,28,28,0,0,0,0,0,0,0,0],"split_type":[0,0,0,0,0,0,0,0,0,0,0,0,0,0,0,0,0],"sum_hessian":[1.12E2,1.1E2,2E0,5E1,6E1,2.5E1,2.5E1,1.8E1,4.2E1,2.2E1,3E0,2E1,5E0,1E1,8E0,3.6E1,6E0],"tree_param":{"num_deleted":"0","num_feature":"30","num_nodes":"17","size_leaf_vector":"1"}},{"base_weights":[1.5063306E1,7.749789E1,-4.7195387E0,-7.1307465E1,6.3097828E1,-1.4841637E1,-4.6289375E1,-1.0102522E1,1.6721925E2,-9.415078E0,-1.2158803E0,-5.7784457E0,5.7325683E0,2.044409E1,6.7220855E0],"categories":[],"categories_nodes":[],"categories_segments":[],"categories_sizes":[],"default_left":[0,0,0,0,0,0,0,0,0,0,0,0,0,0,0],"id":22,"left_children":[1,-1,3,5,7,-1,9,11,13,-1,-1,-1,-1,-1,-1],"loss_changes":[1.7775858E6,0E0,5.283342E5,1.0694781E5,4.437494E5,0E0,7.399795E4,1.1584128E5,7.558781E4,0E0,0E0,0E0,0E0,0E0,0E0],"parents":[2147483647,0,0,2,2,3,3,4,4,6,6,7,7,8,8],"right_children":[2,-1,4,6,8,-1,10,12,14,-1,-1,-1,-1,-1,-1],"split_conditions":[2.4060752E0,7.749789E1,1.3487029E3,-3.9616674E-1,1.089821E0,-1.4841637E1,8.169991E2,1.9863057E3,1.031875E3,-9.415078E0,-1.2158803E0,-5.7784457E0,5.7325683E0,2.044409E1,6.7220855E0],"split_indices":[19,0,28,14,29,0,28,28,18,0,0,0,0,0,0],"split_type":[0,0,0,0,0,0,0,0,0,0,0,0,0,0,0],"sum_hessian":[1.17E2,2E0,1.15E2,5.8E1,5.7E1,1.3E1,4.5E1,3.4E1,2.3E1,1.8E1,2.7E1,2E1,1.4E1,1.6E1,7E0],"tree_param":{"num_deleted":"0","num_feature":"30","num_nodes":"15","size_leaf_vector":"1"}},{"base_weights":[1.1337648E1,7.233137E1,-7.0150495E0,-1.0806084E2,2.7512094E1,-1.3147488E2,-3.881973E1,-2.195009E1,6.9187874E1,-1.6900293E1,-9.795866E0,-3.597217E-1,-6.62783E0,-6.860363E0,1.0652319E0,9.60643E0,-2.9947772E0],"categories":[],"categories_nodes":[],"categories_segments":[],"categories_sizes":[],"default_left":[0,0,0,0,0,0,0,0,0,0,0,0,0,0,0,0,0],"id":23,"left_children":[1,-1,3,5,7,9,11,13,15,-1,-1,-1,-1,-1,-1,-1,-1],"loss_changes":[1.560009E6,0E0,4.111652E5,4.3532625E4,1.829197E5,1.1116281E4,8.46602E3,6.309252E4,1.3076869E5,0E0,0E0,0E0,0E0,0E0,0E0,0E0,0E0],"parents":[2147483647,0,0,2,2,3,3,4,4,5,5,6,6,7,7,8,8],"right_children":[2,-1,4,6,8,10,12,14,16,-1,-1,-1,-1,-1,-1,-1,-1],"split_conditions":[3.01E1,7.233137E1,-3.4441623E-1,2.448447E3,1.37E2,9.85873E3,2.0566458E-1,1E0,1.0783962E1,-1.6900293E1,-9.795866E0,-3.597217E-1,-6.62783E0,-6.860363E0,1.0652319E0,9.60643E0,-2.9947772E0],"split_indices":[3,0,14,12,5,13,20,10,23,0,0,0,0,0,0,0,0],"split_type":[0,0,0,0,0,0,0,0,0,0,0,0,0,0,0,0,0],"sum_hessian":[1.18E2,2E0,1.16E2,2.9E1,8.7E1,2.1E1,8E0,4E1,4.7E1,8E0,1.3E1,4E0,4E0,1.6E1,2.4E1,3.7E1,1E1],"tree_param":{"num_deleted":"0","num_feature":"30","num_nodes":"17","size_leaf_vector":"1"}},{"base_weights":[3.3429189E0,-8.722645E0,4.6876377E1,-5.1243763E1,5.4792263E1,-7.529159E1,3.4623383E1,-2.4361427E1,1.1966107E2,-1.119184E1,-5.5960693E0,-3.6507745E0,8.0952835E0,7.0453876E-1,-5.112089E0,1.3873553E1,1.1801221E0],"categories":[],"categories_nodes":[],"categories_segments":[],"categories_sizes":[],"default_left":[0,0,0,0,0,0,0,0,0,0,0,0,0,0,0,0,0],"id":24,"left_children":[1,3,-1,5,7,9,11,13,15,-1,-1,-1,-1,-1,-1,-1,-1],"loss_changes":[6.667255E5,3.1609184E5,0E0,1.4715114E5,2.4424155E5,3.2678562E4,5.5682863E4,1.8849617E4,5.1854375E4,0E0,0E0,0E0,0E0,0E0,0E0,0E0,0E0],"parents":[2147483647,0,0,1,1,3,3,4,4,5,5,6,6,7,7,8,8],"right_children":[2,4,-1,6,8,10,12,14,16,-1,-1,-1,-1,-1,-1,-1,-1],"split_conditions":[3.5254686E0,1.0821328E0,4.6876377E1,1.9203948E3,4.02232E3,1.0555875E3,7.572044E-1,3.2E1,8.036741E0,-1.119184E1,-5.5960693E0,-3.6507745E0,8.0952835E0,7.0453876E-1,-5.112089E0,1.3873553E1,1.1801221E0],"split_indices":[14,29,0,28,13,28,29,6,23,0,0,0,0,0,0,0,0],"split_type":[0,0,0,0,0,0,0,0,0,0,0,0,0,0,0,0,0],"sum_hessian":[1.17E2,1.15E2,2E0,6.9E1,4.6E1,5.4E1,1.5E1,2.1E1,2.5E1,1.7E1,3.7E1,6E0,9E0,1E1,1.1E1,2.1E1,4E0],"tree_param":{"num_deleted":"0","num_feature":"30","num_nodes":"17","size_leaf_vector":"1"}},{"base_weights":[9.8018465E0,5.659941E2,-1.0149679E1,6.5484276E1,1.49724E1,-3.9854595E1,1.00428955E2,-6.0890007E1,5.9925102E1,4.5095264E1,1.733866E2,-1.2339586E1,-4.2907233E0,-1.7654175E0,1.2222611E1,4.121205E-1,1.2621914E1,1.8145666E1,5.037805E0],"categories":[],"categories_nodes":[],"categories_segments":[],"categories_sizes":[],"default_left":[0,0,0,0,0,0,0,0,0,0,0,0,0,0,0,0,0,0,0],"id":25,"left_children":[1,3,5,-1,-1,7,9,11,13,15,17,-1,-1,-1,-1,-1,-1,-1,-1],"loss_changes":[1.2818862E6,4.9894375E4,3.7189222E5,0E0,0E0,1.904516E5,8.9069484E4,7.78835E4,7.949009E4,4.9339445E4,7.8540625E2,0E0,0E0,0E0,0E0,0E0,0E0,0E0,0E0],"parents":[2147483647,0,0,1,1,2,2,5,5,6,6,7,7,8,8,9,9,10,10],"right_children":[2,4,6,-1,-1,8,10,12,14,16,18,-1,-1,-1,-1,-1,-1,-1,-1],"split_conditions":[3.02E1,1.251E3,1.9203948E3,6.5484276E1,1.49724E1,1.5126538E0,1.0830731E0,7.531949E2,3.75154E3,7.4551725E0,2.525E1,-1.2339586E1,-4.2907233E0,-1.7654175E0,1.2222611E1,4.121205E-1,1.2621914E1,1.8145666E1,5.037805E0],"split_indices":[3,1,28,0,0,29,29,28,13,23,4,0,0,0,0,0,0,0,0],"split_type":[0,0,0,0,0,0,0,0,0,0,0,0,0,0,0,0,0,0,0],"sum_hessian":[1.14E2,3E0,1.11E2,2E0,1E0,8.8E1,2.3E1,7.3E1,1.5E1,1.4E1,9E0,1.5E1,5.8E1,7E0,8E0,1E1,4E0,8E0,1E0],"tree_param":{"num_deleted":"0","num_feature":"30","num_nodes":"19","size_leaf_vector":"1"}},{"base_weights":[-4.037074E0,3.3946332E2,-1.684048E1,3.935171E1,8.8651E0,-8.116226E1,1.1685644E1,-3.8290894E1,-1.19259384E2,-4.533683E1,4.4705303E1,-3.445691E-1,-4.874744E0,-1.229997E1,-2.9707215E0,-3.2016315E0,-1.1725585E1,2.7965598E0,1.0551963E1],"categories":[],"categories_nodes":[],"categories_segments":[],"categories_sizes":[],"default_left":[0,0,0,0,0,0,0,0,0,0,0,0,0,0,0,0,0,0,0],"id":26,"left_children":[1,3,5,-1,-1,7,9,11,13,15,17,-1,-1,-1,-1,-1,-1,-1,-1],"loss_changes":[4.8949397E5,1.9343719E4,1.9727752E5,0E0,0E0,4.933158E4,1.432415E5,6.02616E3,2.0402031E3,2.3069855E4,4.5913742E4,0E0,0E0,0E0,0E0,0E0,0E0,0E0,0E0],"parents":[2147483647,0,0,1,1,2,2,5,5,6,6,7,7,8,8,9,9,10,10],"right_children":[2,4,6,-1,-1,8,10,12,14,16,18,-1,-1,-1,-1,-1,-1,-1,-1],"split_conditions":[3.1212E2,2.61E2,1.0555875E3,3.935171E1,8.8651E0,4.18035E3,7.9225594E-1,1.02535E3,4.135292E0,1.8242E3,1.198645E4,-3.445691E-1,-4.874744E0,-1.229997E1,-2.9707215E0,-3.2016315E0,-1.1725585E1,2.7965598E0,1.0551963E1],"split_indices":[18,2,28,0,0,13,29,16,19,22,13,0,0,0,0,0,0,0,0],"split_type":[0,0,0,0,0,0,0,0,0,0,0,0,0,0,0,0,0,0,0],"sum_hessian":[1.09E2,3E0,1.06E2,2E0,1E0,3.2E1,7.4E1,1.6E1,1.6E1,2.7E1,4.7E1,4E0,1.2E1,1.5E1,1E0,2.4E1,3E0,3.8E1,9E0],"tree_param":{"num_deleted":"0","num_feature":"30","num_nodes":"19","size_leaf_vector":"1"}},{"base_weights":[4.0486617E0,5.9713703E1,-1.1324733E1,-4.752936E1,3.4148838E1,-8.996188E1,-3.0626972E1,1.393872E0,1.323065E2,-1.0073625E1,-2.7067566E0,-5.8704834E0,-1.0307566E-2,1.9942983E0,-1.070416E1,-7.129639E-1,1.4452033E1],"categories":[],"categories_nodes":[],"categories_segments":[],"categories_sizes":[],"default_left":[0,0,0,0,0,0,0,0,0,0,0,0,0,0,0,0,0],"id":27,"left_children":[1,-1,3,5,7,9,11,13,15,-1,-1,-1,-1,-1,-1,-1,-1],"loss_changes":[1.0826606E6,0E0,1.926001E5,4.386347E4,1.6700344E5,9.470922E3,4.113215E4,8.2589984E4,2.317E4,0E0,0E0,0E0,0E0,0E0,0E0,0E0,0E0],"parents":[2147483647,0,0,2,2,3,3,4,4,5,5,6,6,7,7,8,8],"right_children":[2,-1,4,6,8,10,12,14,16,-1,-1,-1,-1,-1,-1,-1,-1],"split_conditions":[2.4060752E0,5.9713703E1,1.4704116E3,7.531949E2,5.4369795E-1,2.6636863E0,1.07558504E-1,1.921571E4,5.767804E2,-1.0073625E1,-2.7067566E0,-5.8704834E0,-1.0307566E-2,1.9942983E0,-1.070416E1,-7.129639E-1,1.4452033E1],"split_indices":[19,0,28,28,14,14,14,13,12,0,0,0,0,0,0,0,0],"split_type":[0,0,0,0,0,0,0,0,0,0,0,0,0,0,0,0,0],"sum_hessian":[1.17E2,2E0,1.15E2,6.4E1,5.1E1,1.7E1,4.7E1,3.9E1,1.2E1,1.4E1,3E0,2.4E1,2.3E1,3.4E1,5E0,1E0,1.1E1],"tree_param":{"num_deleted":"0","num_feature":"30","num_nodes":"17","size_leaf_vector":"1"}},{"base_weights":[3.2450142E0,5.5732796E1,-1.1364581E1,-6.4075195E1,2.3940535E1,-1.5991389E1,-5.1140232E1,3.3518512E0,1.3219434E2,-6.6427073E0,-2.214742E0,-1.4307333E0,6.693876E0,6.406303E0,1.7829327E1],"categories":[],"categories_nodes":[],"categories_segments":[],"categories_sizes":[],"default_left":[0,0,0,0,0,0,0,0,0,0,0,0,0,0,0],"id":28,"left_children":[1,-1,3,5,7,-1,9,11,13,-1,-1,-1,-1,-1,-1],"loss_changes":[9.453453E5,0E0,2.136828E5,4.884683E4,1.5334433E5,0E0,1.7143578E4,6.72084E4,2.3126547E4,0E0,0E0,0E0,0E0,0E0,0E0],"parents":[2147483647,0,0,2,2,3,3,4,4,6,6,7,7,8,8],"right_children":[2,-1,4,6,8,-1,10,12,14,-1,-1,-1,-1,-1,-1],"split_conditions":[3.01E1,5.5732796E1,8.689582E-1,3.8437498E-1,1.187429E4,-1.5991389E1,1.9383911E3,1.5756614E0,3.29E1,-6.6427073E0,-2.214742E0,-1.4307333E0,6.693876E0,6.406303E0,1.7829327E1],"split_indices":[3,0,29,29,13,0,12,29,3,0,0,0,0,0,0],"split_type":[0,0,0,0,0,0,0,0,0,0,0,0,0,0,0],"sum_hessian":[1.15E2,2E0,1.13E2,4.5E1,6.8E1,4E0,4.1E1,5.8E1,1E1,2.6E1,1.5E1,4.6E1,1.2E1,5E0,5E0],"tree_param":{"num_deleted":"0","num_feature":"30","num_nodes":"15","size_leaf_vector":"1"}},{"base_weights":[1.3356589E1,5.201727E1,6.805161E-1,-3.8657986E1,3.873906E1,-8.737612E1,-2.1931248E1,1.8779023E0,1.0116111E2,-1.1546909E1,-5.581757E0,-4.361218E0,-2.3988597E-2,-3.2700431E0,3.809126E0,3.708636E0,1.4759659E1],"categories":[],"categories_nodes":[],"categories_segments":[],"categories_sizes":[],"default_left":[0,0,0,0,0,0,0,0,0,0,0,0,0,0,0,0,0],"id":29,"left_children":[1,-1,3,5,7,9,11,13,15,-1,-1,-1,-1,-1,-1,-1,-1],"loss_changes":[7.89852E5,0E0,1.8265469E5,4.6977445E4,1.4246888E5,6.853414E3,2.1622832E4,5.1333504E4,6.295903E4,0E0,0E0,0E0,0E0,0E0,0E0,0E0,0E0],"parents":[2147483647,0,0,2,2,3,3,4,4,5,5,6,6,7,7,8,8],"right_children":[2,-1,4,6,8,10,12,14,16,-1,-1,-1,-1,-1,-1,-1,-1],"split_conditions":[3.01E1,5.201727E1,1.3487029E3,5.0932807E-1,1.1476513E0,3.02E2,1.0555875E3,1.9863057E3,1.4872E3,-1.1546909E1,-5.581757E0,-4.361218E0,-2.3988597E-2,-3.2700431E0,3.809126E0,3.708636E0,1.4759659E1],"split_indices":[3,0,28,29,29,7,28,28,22,0,0,0,0,0,0,0,0],"split_type":[0,0,0,0,0,0,0,0,0,0,0,0,0,0,0,0,0],"sum_hessian":[1.22E2,2E0,1.2E2,5.9E1,6.1E1,1.4E1,4.5E1,3.9E1,2.2E1,6E0,8E0,2.2E1,2.3E1,2E1,1.9E1,1E1,1.2E1],"tree_param":{"num_deleted":"0","num_feature":"30","num_nodes":"17","size_leaf_vector":"1"}},{"base_weights":[9.644523E0,4.8549465E1,-3.0740156E0,-3.58414E1,4.204518E1,-7.988794E1,-1.4954038E1,-1.5618205E1,9.572022E1,-1.3697942E1,-6.276273E0,-3.0445368E0,3.147518E0,-5.0237746E0,-3.8637087E-1,2.6926548E0,1.1602736E1],"categories":[],"categories_nodes":[],"categories_segments":[],"categories_sizes":[],"default_left":[0,0,0,0,0,0,0,0,0,0,0,0,0,0,0,0,0],"id":30,"left_children":[1,-1,3,5,7,9,11,13,15,-1,-1,-1,-1,-1,-1,-1,-1],"loss_changes":[6.9748594E5,0E0,1.6857048E5,5.9526406E4,1.5005906E5,1.1934578E4,3.404379E4,9.572342E3,3.1800828E4,0E0,0E0,0E0,0E0,0E0,0E0,0E0,0E0],"parents":[2147483647,0,0,2,2,3,3,4,4,5,5,6,6,7,7,8,8],"right_children":[2,-1,4,6,8,10,12,14,16,-1,-1,-1,-1,-1,-1,-1,-1],"split_conditions":[3.01E1,4.8549465E1,1.089821E0,5.0932807E-1,4.27663E3,3.8437498E-1,1.187429E4,3.5856873E2,1.6510175E-1,-1.3697942E1,-6.276273E0,-3.0445368E0,3.147518E0,-5.0237746E0,-3.8637087E-1,2.6926548E0,1.1602736E1],"split_indices":[3,0,29,29,13,29,13,12,14,0,0,0,0,0,0,0,0],"split_type":[0,0,0,0,0,0,0,0,0,0,0,0,0,0,0,0,0],"sum_hessian":[1.14E2,2E0,1.12E2,6.5E1,4.7E1,2E1,4.5E1,2.3E1,2.4E1,3E0,1.7E1,3.4E1,1.1E1,5E0,1.8E1,6E0,1.8E1],"tree_param":{"num_deleted":"0","num_feature":"30","num_nodes":"17","size_leaf_vector":"1"}},{"base_weights":[4.561194E0,-1.53885565E1,1.20681335E2,-4.244007E1,2.460293E1,4.8414223E1,2.571465E2,-1.2508748E1,-3.6222908E1,-7.464437E0,9.156136E1,-2.3903126E1,8.321116E0,1.3659095E1,3.321718E1,-5.660775E0,-2.106058E0,-5.834866E0,7.687813E-1,5.8493547E0,1.2590287E1,1.5116822E0,-3.7437317E0],"categories":[],"categories_nodes":[],"categories_segments":[],"categories_sizes":[],"default_left":[0,0,0,0,0,0,0,0,0,0,0,0,0,0,0,0,0,0,0,0,0,0,0],"id":31,"left_children":[1,3,5,7,9,11,13,-1,15,17,19,21,-1,-1,-1,-1,-1,-1,-1,-1,-1,-1,-1],"loss_changes":[2.8447838E5,1.14636336E5,1.6506547E5,2.7840414E4,9.301222E4,3.4702508E4,8.896625E3,0E0,1.735271E4,2.3578887E4,8.533875E3,3.2064507E3,0E0,0E0,0E0,0E0,0E0,0E0,0E0,0E0,0E0,0E0,0E0],"parents":[2147483647,0,0,1,1,2,2,3,3,4,4,5,5,6,6,8,8,9,9,10,10,11,11],"right_children":[2,4,6,8,10,12,14,-1,16,18,20,22,-1,-1,-1,-1,-1,-1,-1,-1,-1,-1,-1],"split_conditions":[2.3844788E3,1.1772726E0,1.0957003E0,3.8437498E-1,1.4704116E3,1.975E1,9.902025E0,-1.2508748E1,2.217E2,3.5856873E2,2.0800911E-1,3.06E1,8.321116E0,1.3659095E1,3.321718E1,-5.660775E0,-2.106058E0,-5.834866E0,7.687813E-1,5.8493547E0,1.2590287E1,1.5116822E0,-3.7437317E0],"split_indices":[28,29,29,29,28,4,21,0,2,12,20,3,0,0,0,0,0,0,0,0,0,0,0],"split_type":[0,0,0,0,0,0,0,0,0,0,0,0,0,0,0,0,0,0,0,0,0,0,0],"sum_hessian":[1.21E2,1.04E2,1.7E1,6.2E1,4.2E1,1.2E1,5E0,3E0,5.9E1,2.9E1,1.3E1,4E0,8E0,3E0,2E0,2.4E1,3.5E1,6E0,2.3E1,8E0,5E0,1E0,3E0],"tree_param":{"num_deleted":"0","num_feature":"30","num_nodes":"23","size_leaf_vector":"1"}},{"base_weights":[5.1883307E0,4.3750294E1,-6.1345572E0,-5.94913E1,1.1721535E1,-1.6772415E1,-7.232129E1,-2.0345764E0,7.7886505E1,2.124385E0,-4.3830943E0,-1.0173884E1,-5.1810503E0,2.7901657E0,-1.4660779E0,3.7505212E0,1.3220758E1],"categories":[],"categories_nodes":[],"categories_segments":[],"categories_sizes":[],"default_left":[0,0,0,0,0,0,0,0,0,0,0,0,0,0,0,0,0],"id":32,"left_children":[1,-1,3,5,7,9,11,13,15,-1,-1,-1,-1,-1,-1,-1,-1],"loss_changes":[5.754047E5,0E0,1.1026276E5,1.4681391E4,7.9343484E4,9.160453E3,8.003172E3,2.8001668E4,2.7944852E4,0E0,0E0,0E0,0E0,0E0,0E0,0E0,0E0],"parents":[2147483647,0,0,2,2,3,3,4,4,5,5,6,6,7,7,8,8],"right_children":[2,-1,4,6,8,10,12,14,16,-1,-1,-1,-1,-1,-1,-1,-1],"split_conditions":[2.4060752E0,4.3750294E1,6.903183E-1,2.7880244E0,1.187429E4,1.4218E3,-7.22941E-1,5.404E3,3.350988E0,2.124385E0,-4.3830943E0,-1.0173884E1,-5.1810503E0,2.7901657E0,-1.4660779E0,3.7505212E0,1.3220758E1],"split_indices":[19,0,29,19,13,22,14,25,19,0,0,0,0,0,0,0,0],"split_type":[0,0,0,0,0,0,0,0,0,0,0,0,0,0,0,0,0],"sum_hessian":[1.16E2,2E0,1.14E2,2.8E1,8.6E1,7E0,2.1E1,7.2E1,1.4E1,3E0,4E0,7E0,1.4E1,2.1E1,5.1E1,9E0,5E0],"tree_param":{"num_deleted":"0","num_feature":"30","num_nodes":"17","size_leaf_vector":"1"}},{"base_weights":[5.8179226E0,3.5357452E2,-6.7662606E0,4.0833595E1,9.464515E0,-6.56159E1,8.518099E0,-3.0343126E1,-8.2405174E1,-2.2890007E1,2.9299093E1,-1.33543E0,-5.986934E0,-8.7687E0,-3.2048872E0,-1.4332169E0,-8.776969E0,1.3526976E0,5.764105E0],"categories":[],"categories_nodes":[],"categories_segments":[],"categories_sizes":[],"default_left":[0,0,0,0,0,0,0,0,0,0,0,0,0,0,0,0,0,0,0],"id":33,"left_children":[1,3,5,-1,-1,7,9,11,13,15,17,-1,-1,-1,-1,-1,-1,-1,-1],"loss_changes":[5.0128294E5,1.8070344E4,1.00401086E5,0E0,0E0,1.1120273E4,5.876022E4,3.7150283E3,1.1793359E3,1.8730344E4,2.3358977E4,0E0,0E0,0E0,0E0,0E0,0E0,0E0,0E0],"parents":[2147483647,0,0,1,1,2,2,5,5,6,6,7,7,8,8,9,9,10,10],"right_children":[2,4,6,-1,-1,8,10,12,14,16,18,-1,-1,-1,-1,-1,-1,-1,-1],"split_conditions":[3.02E1,1.251E3,8.169991E2,4.0833595E1,9.464515E0,8.7168E2,-1.613359E-1,3.91543E3,2.6600984E-1,1.8242E3,1.9203948E3,-1.33543E0,-5.986934E0,-8.7687E0,-3.2048872E0,-1.4332169E0,-8.776969E0,1.3526976E0,5.764105E0],"split_indices":[3,1,28,0,0,26,14,13,27,22,28,0,0,0,0,0,0,0,0],"split_type":[0,0,0,0,0,0,0,0,0,0,0,0,0,0,0,0,0,0,0],"sum_hessian":[1.13E2,3E0,1.1E2,2E0,1E0,2.2E1,8.8E1,8E0,1.4E1,3.5E1,5.3E1,6E0,2E0,1.2E1,2E0,3.2E1,3E0,3.5E1,1.8E1],"tree_param":{"num_deleted":"0","num_feature":"30","num_nodes":"19","size_leaf_vector":"1"}},{"base_weights":[1.3272409E1,3.3079163E2,2.1128502E0,3.8111362E1,8.991284E0,-2.1642586E1,3.9546696E1,-3.6617836E1,2.8079842E1,-5.095847E0,9.080941E1,-1.0341754E1,-2.9350848E0,-1.1414202E0,5.0659704E0,1.1405696E0,-2.3922994E0,1.8355103E0,1.1230418E1],"categories":[],"categories_nodes":[],"categories_segments":[],"categories_sizes":[],"default_left":[0,0,0,0,0,0,0,0,0,0,0,0,0,0,0,0,0,0,0],"id":34,"left_children":[1,3,5,-1,-1,7,9,11,13,15,17,-1,-1,-1,-1,-1,-1,-1,-1],"loss_changes":[4.1741928E5,1.4218969E4,1.0312049E5,0E0,0E0,5.3895227E4,1.0344516E5,2.3663414E4,1.5738328E4,8.039783E3,3.0643797E4,0E0,0E0,0E0,0E0,0E0,0E0,0E0,0E0],"parents":[2147483647,0,0,1,1,2,2,5,5,6,6,7,7,8,8,9,9,10,10],"right_children":[2,4,6,-1,-1,8,10,12,14,16,18,-1,-1,-1,-1,-1,-1,-1,-1],"split_conditions":[3.02E1,1.251E3,1.1772726E0,3.8111362E1,8.991284E0,1.9863057E3,1.4704116E3,3.8437498E-1,7.572044E-1,1.066E3,6.7838E2,-1.0341754E1,-2.9350848E0,-1.1414202E0,5.0659704E0,1.1405696E0,-2.3922994E0,1.8355103E0,1.1230418E1],"split_indices":[3,1,29,0,0,28,28,29,29,16,26,0,0,0,0,0,0,0,0],"split_type":[0,0,0,0,0,0,0,0,0,0,0,0,0,0,0,0,0,0,0],"sum_hessian":[1.17E2,3E0,1.14E2,2E0,1E0,7E1,4.4E1,5.4E1,1.6E1,2.4E1,2E1,4E0,5E1,6E0,1E1,1.3E1,1.1E1,5E0,1.5E1],"tree_param":{"num_deleted":"0","num_feature":"30","num_nodes":"19","size_leaf_vector":"1"}},{"base_weights":[9.141178E0,3.0948816E2,-1.6671171E0,3.5570606E1,8.541724E0,-3.0680592E1,3.120978E1,-3.832638E1,1.1381006E1,5.113598E0,9.12376E1,-6.305932E0,-2.6269348E0,-1.6810883E0,2.58648E0,-1.399835E0,3.5351808E0,1.5802094E0,1.0743026E1],"categories":[],"categories_nodes":[],"categories_segments":[],"categories_sizes":[],"default_left":[0,0,0,0,0,0,0,0,0,0,0,0,0,0,0,0,0,0,0],"id":35,"left_children":[1,3,5,-1,-1,7,9,11,13,15,17,-1,-1,-1,-1,-1,-1,-1,-1],"loss_changes":[3.7383344E5,1.1040906E4,1.0779131E5,0E0,0E0,1.9731844E4,8.255778E4,1.3551977E4,4.518065E3,2.2455486E4,1.784639E4,0E0,0E0,0E0,0E0,0E0,0E0,0E0,0E0],"parents":[2147483647,0,0,1,1,2,2,5,5,6,6,7,7,8,8,9,9,10,10],"right_children":[2,4,6,-1,-1,8,10,12,14,16,18,-1,-1,-1,-1,-1,-1,-1,-1],"split_conditions":[3.02E1,1.251E3,1.4704116E3,3.5570606E1,8.541724E0,1.5126538E0,1.2064838E0,7.531949E2,7.531949E2,2.3844788E3,6.7838E2,-6.305932E0,-2.6269348E0,-1.6810883E0,2.58648E0,-1.399835E0,3.5351808E0,1.5802094E0,1.0743026E1],"split_indices":[3,1,28,0,0,29,29,28,28,28,26,0,0,0,0,0,0,0,0],"split_type":[0,0,0,0,0,0,0,0,0,0,0,0,0,0,0,0,0,0,0],"sum_hessian":[1.14E2,3E0,1.11E2,2E0,1E0,5.9E1,5.2E1,5E1,9E0,3.7E1,1.5E1,1.5E1,3.5E1,3E0,6E0,2.3E1,1.4E1,3E0,1.2E1],"tree_param":{"num_deleted":"0","num_feature":"30","num_nodes":"19","size_leaf_vector":"1"}},{"base_weights":[2.4947765E-1,3.319922E1,-8.482782E0,-4.2515236E1,5.907171E0,-5.7798943E1,-2.1708632E1,8.941148E0,4.080969E-1,-8.090373E-1,-6.3171105E0,2.3619833E0,-2.9871259E0,-2.3837939E-1,1.062959E1],"categories":[],"categories_nodes":[],"categories_segments":[],"categories_sizes":[],"default_left":[0,0,0,0,0,0,0,0,0,0,0,0,0,0,0],"id":36,"left_children":[1,-1,3,5,7,9,11,-1,13,-1,-1,-1,-1,-1,-1],"loss_changes":[3.3885238E5,0E0,5.6079836E4,9.557332E3,3.7158414E4,4.5627266E3,6.6255425E3,0E0,2.301668E4,0E0,0E0,0E0,0E0,0E0,0E0],"parents":[2147483647,0,0,2,2,3,3,4,4,5,5,6,6,8,8],"right_children":[2,-1,4,6,8,10,12,-1,14,-1,-1,-1,-1,-1,-1],"split_conditions":[3.01E1,3.319922E1,-3.4441623E-1,-7.050424E-1,1.9315767E-1,6.7838E2,3.15E1,8.941148E0,3.5254686E0,-8.090373E-1,-6.3171105E0,2.3619833E0,-2.9871259E0,-2.3837939E-1,1.062959E1],"split_indices":[3,0,14,14,20,26,3,0,14,0,0,0,0,0,0],"split_type":[0,0,0,0,0,0,0,0,0,0,0,0,0,0,0],"sum_hessian":[1.15E2,2E0,1.13E2,3.3E1,8E1,1.8E1,1.5E1,4E0,7.6E1,2E0,1.6E1,2E0,1.3E1,7.5E1,1E0],"tree_param":{"num_deleted":"0","num_feature":"30","num_nodes":"15","size_leaf_vector":"1"}},{"base_weights":[1.1920876E1,2.7302728E2,2.139889E0,3.0985937E1,8.126551E0,-3.4818142E1,1.8159298E1,-1.647366E1,-5.5733273E1,6.234571E1,6.271726E0,8.839203E-1,-2.8836458E0,-5.921802E0,-3.4733889E-1,2.1596243E0,8.463576E0,1.1461205E0,-7.0543656E0],"categories":[],"categories_nodes":[],"categories_segments":[],"categories_sizes":[],"default_left":[0,0,0,0,0,0,0,0,0,0,0,0,0,0,0,0,0,0,0],"id":37,"left_children":[1,3,5,-1,-1,7,9,11,13,15,17,-1,-1,-1,-1,-1,-1,-1,-1],"loss_changes":[2.8289622E5,3.0710625E3,6.457322E4,0E0,0E0,1.1743215E4,3.9529438E4,6.20071E3,2.526004E3,1.2705113E4,2.5125059E4,0E0,0E0,0E0,0E0,0E0,0E0,0E0,0E0],"parents":[2147483647,0,0,1,1,2,2,5,5,6,6,7,7,8,8,9,9,10,10],"right_children":[2,4,6,-1,-1,8,10,12,14,16,18,-1,-1,-1,-1,-1,-1,-1,-1],"split_conditions":[3.02E1,2.558E2,1.0555875E3,3.0985937E1,8.126551E0,4.18035E3,1E0,1.0731666E3,4.135292E0,1.037721E4,1.921571E4,8.839203E-1,-2.8836458E0,-5.921802E0,-3.4733889E-1,2.1596243E0,8.463576E0,1.1461205E0,-7.0543656E0],"split_indices":[3,2,28,0,0,13,11,15,19,13,13,0,0,0,0,0,0,0,0],"split_type":[0,0,0,0,0,0,0,0,0,0,0,0,0,0,0,0,0,0,0],"sum_hessian":[1.1E2,3E0,1.07E2,2E0,1E0,3.2E1,7.5E1,1.8E1,1.4E1,1.5E1,6E1,6E0,1.2E1,1.3E1,1E0,6E0,9E0,5.7E1,3E0],"tree_param":{"num_deleted":"0","num_feature":"30","num_nodes":"19","size_leaf_vector":"1"}},{"base_weights":[9.921695E0,2.5550275E2,1.4409609E0,2.8920216E1,7.7202272E0,-2.4743082E1,2.351123E1,-3.1419489E1,7.775061E0,-4.283993E0,5.144033E1,-4.880099E0,-2.2833226E0,2.7307756E0,-2.8350923E0,-1.3824179E0,1.6053123E0,3.269214E-1,7.0147758E0],"categories":[],"categories_nodes":[],"categories_segments":[],"categories_sizes":[],"default_left":[0,0,0,0,0,0,0,0,0,0,0,0,0,0,0,0,0,0,0],"id":38,"left_children":[1,3,5,-1,-1,7,9,11,13,15,17,-1,-1,-1,-1,-1,-1,-1,-1],"loss_changes":[2.4955675E5,1.7074219E3,6.8194734E4,0E0,0E0,1.1967926E4,4.9903285E4,5.6016133E3,7.830578E3,6.624577E3,2.860771E4,0E0,0E0,0E0,0E0,0E0,0E0,0E0,0E0],"parents":[2147483647,0,0,1,1,2,2,5,5,6,6,7,7,8,8,9,9,10,10],"right_children":[2,4,6,-1,-1,8,10,12,14,16,18,-1,-1,-1,-1,-1,-1,-1,-1],"split_conditions":[3.02E1,1.251E3,9.593177E-1,2.8920216E1,7.7202272E0,2.3844788E3,1.4704116E3,-7.050424E-1,2.1006864E-1,1.559004E0,6.841399E-4,-4.880099E0,-2.2833226E0,2.7307756E0,-2.8350923E0,-1.3824179E0,1.6053123E0,3.269214E-1,7.0147758E0],"split_indices":[3,1,29,0,0,28,28,14,20,29,14,0,0,0,0,0,0,0,0],"split_type":[0,0,0,0,0,0,0,0,0,0,0,0,0,0,0,0,0,0,0],"sum_hessian":[1.19E2,3E0,1.16E2,2E0,1E0,5.3E1,6.3E1,4.4E1,9E0,3.2E1,3.1E1,1.3E1,3.1E1,6E0,3E0,2.2E1,1E1,9E0,2.2E1],"tree_param":{"num_deleted":"0","num_feature":"30","num_nodes":"19","size_leaf_vector":"1"}},{"base_weights":[4.6658874E0,-7.603418E0,7.584209E1,-1.5659229E1,5.210615E1,1.5197217E2,3.145687E1,-4.126364E1,-3.6496751E0,2.1213583E1,1.0858789E2,1.6697798E1,3.8471558E0,5.8726134E0,-1.8465332E1,-3.221524E0,-6.3806663E0,-1.9563593E0,1.4585117E0,-1.0345367E0,3.8717287E0,1.2907869E1,2.355774E0,-2.8165894E0,1.0168457E0],"categories":[],"categories_nodes":[],"categories_segments":[],"categories_sizes":[],"default_left":[0,0,0,0,0,0,0,0,0,0,0,0,0,0,0,0,0,0,0,0,0,0,0,0,0],"id":39,"left_children":[1,3,5,7,9,11,13,15,17,19,21,-1,-1,-1,23,-1,-1,-1,-1,-1,-1,-1,-1,-1,-1],"loss_changes":[1.0100414E5,4.8435836E4,5.266329E4,2.690919E4,1.8634854E4,3.7951094E3,1.74205E4,3.6558438E3,1.7986744E4,5.372131E3,3.928539E3,0E0,0E0,0E0,1.675223E3,0E0,0E0,0E0,0E0,0E0,0E0,0E0,0E0,0E0,0E0],"parents":[2147483647,0,0,1,1,2,2,3,3,4,4,5,5,6,6,7,7,8,8,9,9,10,10,14,14],"right_children":[2,4,6,8,10,12,14,16,18,20,22,-1,-1,-1,24,-1,-1,-1,-1,-1,-1,-1,-1,-1,-1],"split_conditions":[2.3844788E3,2.6636863E0,1.205918E4,1.0555875E3,7.027854E0,1.2535E3,1.494429E4,7.535E2,-2.0098481E-3,2.49974E3,1.036E3,1.6697798E1,3.8471558E0,5.8726134E0,2.025E1,-3.221524E0,-6.3806663E0,-1.9563593E0,1.4585117E0,-1.0345367E0,3.8717287E0,1.2907869E1,2.355774E0,-2.8165894E0,1.0168457E0],"split_indices":[28,14,13,28,23,1,13,0,14,13,1,0,0,0,4,0,0,0,0,0,0,0,0,0,0],"split_type":[0,0,0,0,0,0,0,0,0,0,0,0,0,0,0,0,0,0,0,0,0,0,0,0,0],"sum_hessian":[1.14E2,9.8E1,1.6E1,8.7E1,1.1E1,5E0,1.1E1,2.7E1,6E1,8E0,3E0,4E0,1E0,7E0,4E0,2.1E1,6E0,3.2E1,2.8E1,3E0,5E0,2E0,1E0,3E0,1E0],"tree_param":{"num_deleted":"0","num_feature":"30","num_nodes":"25","size_leaf_vector":"1"}},{"base_weights":[6.4088025E0,2.2658917E2,-1.3053737E0,2.5879004E1,6.4993286E0,-1.691815E1,2.728642E1,-2.2218588E1,1.9756556E1,-4.49191E0,5.493552E1,-2.9740217E0,-2.0471802E-1,4.1886406E0,-2.3909822E0,1.0060669E0,-2.339625E0,2.1378067E0,8.654952E0],"categories":[],"categories_nodes":[],"categories_segments":[],"categories_sizes":[],"default_left":[0,0,0,0,0,0,0,0,0,0,0,0,0,0,0,0,0,0,0],"id":40,"left_children":[1,3,5,-1,-1,7,9,11,13,15,17,-1,-1,-1,-1,-1,-1,-1,-1],"loss_changes":[2.0071998E5,3.9945E3,5.1797324E4,0E0,0E0,1.5018363E4,3.62711E4,9.95276E3,1.06648E4,5.7375186E3,2.148921E4,0E0,0E0,0E0,0E0,0E0,0E0,0E0,0E0],"parents":[2147483647,0,0,1,1,2,2,5,5,6,6,7,7,8,8,9,9,10,10],"right_children":[2,4,6,-1,-1,8,10,12,14,16,18,-1,-1,-1,-1,-1,-1,-1,-1],"split_conditions":[3.02E1,1.251E3,1.1772726E0,2.5879004E1,6.4993286E0,2.5522795E3,4.27663E3,2.220701E-1,2.387E2,1.06955E3,2.095E2,-2.9740217E0,-2.0471802E-1,4.1886406E0,-2.3909822E0,1.0060669E0,-2.339625E0,2.1378067E0,8.654952E0],"split_indices":[3,1,29,0,0,28,13,20,2,16,2,0,0,0,0,0,0,0,0],"split_type":[0,0,0,0,0,0,0,0,0,0,0,0,0,0,0,0,0,0,0],"sum_hessian":[1.17E2,3E0,1.14E2,2E0,1E0,7.4E1,4E1,6.5E1,9E0,1.9E1,2.1E1,4.7E1,1.8E1,6E0,3E0,1.1E1,8E0,1.1E1,1E1],"tree_param":{"num_deleted":"0","num_feature":"30","num_nodes":"19","size_leaf_vector":"1"}},{"base_weights":[4.540792E0,-2.7077057E0,8.382019E1,-3.1466106E1,7.4959693E0,2.2998325E1,1.6930342E1,-4.214867E1,-1.7009886E1,-1.2697358E1,1.8784721E1,-1.36015215E1,4.035857E0,-1.4968733E0,-4.9961257E0,-3.0760484E0,-5.952833E-1,4.8756996E-1,-2.6422384E0,9.8461246E-1,6.7833557E0,-1.6387085E0,-4.0151978E-1],"categories":[],"categories_nodes":[],"categories_segments":[],"categories_sizes":[],"default_left":[0,0,0,0,0,0,0,0,0,0,0,0,0,0,0,0,0,0,0,0,0,0,0],"id":41,"left_children":[1,3,5,7,9,11,-1,13,15,17,19,21,-1,-1,-1,-1,-1,-1,-1,-1,-1,-1,-1],"loss_changes":[6.861109E4,3.2514418E4,4.809879E4,3.7615137E3,1.893103E4,4.9966133E3,0E0,2.6496719E3,1.9454631E3,7.3645483E3,2.2568771E4,1.4312561E1,0E0,0E0,0E0,0E0,0E0,0E0,0E0,0E0,0E0,0E0,0E0],"parents":[2147483647,0,0,1,1,2,2,3,3,4,4,5,5,7,7,8,8,9,9,10,10,11,11],"right_children":[2,4,6,8,10,12,-1,14,16,18,20,22,-1,-1,-1,-1,-1,-1,-1,-1,-1,-1,-1],"split_conditions":[1.6463941E0,1.0555875E3,1.3238E3,7.531949E2,8.252582E-1,3.485341E2,1.6930342E1,1.924E2,1.0817E3,1.4287E3,2.5522795E3,6.962E2,4.035857E0,-1.4968733E0,-4.9961257E0,-3.0760484E0,-5.952833E-1,4.8756996E-1,-2.6422384E0,9.8461246E-1,6.7833557E0,-1.6387085E0,-4.0151978E-1],"split_indices":[29,28,22,28,29,12,0,2,1,22,28,0,0,0,0,0,0,0,0,0,0,0,0],"split_type":[0,0,0,0,0,0,0,0,0,0,0,0,0,0,0,0,0,0,0,0,0,0,0],"sum_hessian":[1.18E2,1.09E2,9E0,2.8E1,8.1E1,6E0,3E0,1.5E1,1.3E1,2.9E1,5.2E1,2E0,4E0,4E0,1.1E1,5E0,8E0,1.3E1,1.6E1,4.5E1,7E0,1E0,1E0],"tree_param":{"num_deleted":"0","num_feature":"30","num_nodes":"23","size_leaf_vector":"1"}},{"base_weights":[-2.6868185E-1,1.6376081E1,-4.545376E0,-2.2562557E1,6.1297493E0,-3.6217896E1,-1.5437982E1,1.1233947E1,-5.273944E1,-2.2416494E0,-5.088368E0,6.061389E-1,-1.8978707E0,3.4710774E0,4.5045692E-1,-5.690967E0,-1.5944153E0],"categories":[],"categories_nodes":[],"categories_segments":[],"categories_sizes":[],"default_left":[0,0,0,0,0,0,0,0,0,0,0,0,0,0,0,0,0],"id":42,"left_children":[1,-1,3,5,7,9,11,13,15,-1,-1,-1,-1,-1,-1,-1,-1],"loss_changes":[8.282033E4,0E0,2.2256904E4,3.6242734E3,2.2527508E4,1.693084E3,2.3987388E3,1.0586583E4,1.3292969E1,0E0,0E0,0E0,0E0,0E0,0E0,0E0,0E0],"parents":[2147483647,0,0,2,2,3,3,4,4,5,5,6,6,7,7,8,8],"right_children":[2,-1,4,6,8,10,12,14,16,-1,-1,-1,-1,-1,-1,-1,-1],"split_conditions":[3.02E1,1.6376081E1,1.132434E3,7.4359045E2,1.921571E4,1.1025E3,1.02535E3,1E0,2.49E2,-2.2416494E0,-5.088368E0,6.061389E-1,-1.8978707E0,3.4710774E0,4.5045692E-1,-5.690967E0,-1.5944153E0],"split_indices":[3,0,28,28,13,16,16,11,2,0,0,0,0,0,0,0,0],"split_type":[0,0,0,0,0,0,0,0,0,0,0,0,0,0,0,0,0],"sum_hessian":[1.16E2,2E0,1.14E2,4.2E1,7.2E1,1.3E1,2.9E1,6.7E1,5E0,8E0,5E0,4E0,2.5E1,1.4E1,5.3E1,4E0,1E0],"tree_param":{"num_deleted":"0","num_feature":"30","num_nodes":"17","size_leaf_vector":"1"}},{"base_weights":[6.270575E0,2.1933332E1,4.556306E-1,-6.510442E0,3.2476784E1,-1.3228806E1,2.6228584E1,-2.2570136E0,6.743628E1,-5.6831613E0,-9.411505E-1,6.7309184E0,6.925954E-1,-1.8263327E0,1.4125469E0,8.187567E0,2.530829E0],"categories":[],"categories_nodes":[],"categories_segments":[],"categories_sizes":[],"default_left":[0,0,0,0,0,0,0,0,0,0,0,0,0,0,0,0,0],"id":43,"left_children":[1,-1,3,5,7,9,11,13,15,-1,-1,-1,-1,-1,-1,-1,-1],"loss_changes":[1.399012E5,0E0,2.4971283E4,2.058262E4,2.4437727E4,1.22813955E4,1.2221237E4,3.1424324E3,4.0108906E3,0E0,0E0,0E0,0E0,0E0,0E0,0E0,0E0],"parents":[2147483647,0,0,2,2,3,3,4,4,5,5,6,6,7,7,8,8],"right_children":[2,-1,4,6,8,10,12,14,16,-1,-1,-1,-1,-1,-1,-1,-1],"split_conditions":[2.4060752E0,2.1933332E1,2.3844788E3,1.559004E0,9.058165E-1,4.0993834E-1,1.00713336E3,6.838134E-1,2.7646855E3,-5.6831613E0,-9.411505E-1,6.7309184E0,6.925954E-1,-1.8263327E0,1.4125469E0,8.187567E0,2.530829E0],"split_indices":[19,0,28,29,29,29,15,29,12,0,0,0,0,0,0,0,0],"split_type":[0,0,0,0,0,0,0,0,0,0,0,0,0,0,0,0,0],"sum_hessian":[1.12E2,2E0,1.1E2,9.1E1,1.9E1,7.6E1,1.5E1,1E1,9E0,5E0,7.1E1,4E0,1.1E1,5E0,5E0,6E0,3E0],"tree_param":{"num_deleted":"0","num_feature":"30","num_nodes":"17","size_leaf_vector":"1"}},{"base_weights":[8.072644E0,2.3502812E0,9.193738E1,-1.237224E1,1.621136E1,1.5943146E1,1.4494727E1,-4.9030834E1,-7.321723E0,5.5315037E0,6.2649586E1,3.1234293E0,-1.4965149E0,3.279541E-1,-6.0148816E0,2.0452414E0,-1.1999154E0,2.1773643E0,-5.107426E-1,3.030215E0,7.9164186E0],"categories":[],"categories_nodes":[],"categories_segments":[],"categories_sizes":[],"default_left":[0,0,0,0,0,0,0,0,0,0,0,0,0,0,0,0,0,0,0,0,0],"id":44,"left_children":[1,3,5,7,9,11,-1,13,15,17,19,-1,-1,-1,-1,-1,-1,-1,-1,-1,-1],"loss_changes":[5.2573414E4,2.1423855E4,2.58882E4,9.083396E3,2.6434953E4,2.357919E3,0E0,3.6867764E3,6.2213457E3,7.887162E3,2.9432031E3,0E0,0E0,0E0,0E0,0E0,0E0,0E0,0E0,0E0,0E0],"parents":[2147483647,0,0,1,1,2,2,3,3,4,4,5,5,7,7,8,8,9,9,10,10],"right_children":[2,4,6,8,10,12,-1,14,16,18,20,-1,-1,-1,-1,-1,-1,-1,-1,-1,-1],"split_conditions":[1.6886419E0,9.593177E-1,1.37E2,9.321E2,2.3844788E3,3.1E1,1.4494727E1,8.416E2,7.18683E3,6.815E3,-1.1927749E-1,3.1234293E0,-1.4965149E0,3.279541E-1,-6.0148816E0,2.0452414E0,-1.1999154E0,2.1773643E0,-5.107426E-1,3.030215E0,7.9164186E0],"split_indices":[29,29,5,1,28,6,0,1,13,25,14,0,0,0,0,0,0,0,0,0,0],"split_type":[0,0,0,0,0,0,0,0,0,0,0,0,0,0,0,0,0,0,0,0,0],"sum_hessian":[1.09E2,1.03E2,6E0,5E1,5.3E1,3E0,3E0,5E0,4.5E1,4.4E1,9E0,2E0,1E0,1E0,4E0,6E0,3.9E1,1.7E1,2.7E1,4E0,5E0],"tree_param":{"num_deleted":"0","num_feature":"30","num_nodes":"21","size_leaf_vector":"1"}},{"base_weights":[3.4595196E0,1.3533293E2,-2.701975E-1,1.6088745E1,4.211194E0,-6.4426847E0,2.8657251E1,-3.080303E1,-2.2462277E0,4.6632015E1,-8.818342E0,3.1155702E-1,-3.388921E0,2.697622E-1,-3.2154565E0,-2.3568928E-1,5.5753355E0,1.0057191E0,-1.3640462E0],"categories":[],"categories_nodes":[],"categories_segments":[],"categories_sizes":[],"default_left":[0,0,0,0,0,0,0,0,0,0,0,0,0,0,0,0,0,0,0],"id":45,"left_children":[1,3,5,-1,-1,7,9,11,13,15,17,-1,-1,-1,-1,-1,-1,-1,-1],"loss_changes":[5.3648273E4,3.713711E2,1.928994E4,0E0,0E0,9.029024E3,1.3209899E4,1.4664102E3,1.1472139E4,5.940379E3,7.743254E2,0E0,0E0,0E0,0E0,0E0,0E0,0E0,0E0],"parents":[2147483647,0,0,1,1,2,2,5,5,6,6,7,7,8,8,9,9,10,10],"right_children":[2,4,6,-1,-1,8,10,12,14,16,18,-1,-1,-1,-1,-1,-1,-1,-1],"split_conditions":[3.02E1,2.408E2,1.9863057E3,1.6088745E1,4.211194E0,7.4359045E2,1.488944E4,8.416E2,9.6267736E-1,1.4622E3,3.06E1,3.1155702E-1,-3.388921E0,2.697622E-1,-3.2154565E0,-2.3568928E-1,5.5753355E0,1.0057191E0,-1.3640462E0],"split_indices":[3,2,28,0,0,28,13,22,24,22,3,0,0,0,0,0,0,0,0],"split_type":[0,0,0,0,0,0,0,0,0,0,0,0,0,0,0,0,0,0,0],"sum_hessian":[1.08E2,2E0,1.06E2,1E0,1E0,8.8E1,1.8E1,1.2E1,7.6E1,1.2E1,6E0,1E0,1.1E1,6.6E1,1E1,2E0,1E1,1E0,5E0],"tree_param":{"num_deleted":"0","num_feature":"30","num_nodes":"19","size_leaf_vector":"1"}},{"base_weights":[8.312539E0,1.8828142E1,3.5454159E0,-1.3444568E1,2.232439E1,-5.771745E0,-1.0159463E1,-7.731476E-1,4.462463E1,-1.4801522E0,1.1020386E0,9.701005E-1,-1.194023E0,2.3168297E0,8.09292E0],"categories":[],"categories_nodes":[],"categories_segments":[],"categories_sizes":[],"default_left":[0,0,0,0,0,0,0,0,0,0,0,0,0,0,0],"id":46,"left_children":[1,-1,3,5,7,-1,9,11,13,-1,-1,-1,-1,-1,-1],"loss_changes":[9.971071E4,0E0,3.699141E4,8.285528E3,2.8363936E4,0E0,5.86557E3,3.390872E3,1.9935973E4,0E0,0E0,0E0,0E0,0E0,0E0],"parents":[2147483647,0,0,2,2,3,3,4,4,6,6,7,7,8,8],"right_children":[2,-1,4,6,8,-1,10,12,14,-1,-1,-1,-1,-1,-1],"split_conditions":[2.4060752E0,1.8828142E1,1.0897903E-2,3.8437498E-1,1.3487029E3,-5.771745E0,2.3844788E3,1.6113745E-1,2.0784609E-1,-1.4801522E0,1.1020386E0,9.701005E-1,-1.194023E0,2.3168297E0,8.09292E0],"split_indices":[19,0,14,29,28,0,28,27,20,0,0,0,0,0,0],"split_type":[0,0,0,0,0,0,0,0,0,0,0,0,0,0,0],"sum_hessian":[1.16E2,2E0,1.14E2,6E1,5.4E1,3E0,5.7E1,2.7E1,2.7E1,4.7E1,1E1,1.4E1,1.3E1,1.8E1,9E0],"tree_param":{"num_deleted":"0","num_feature":"30","num_nodes":"15","size_leaf_vector":"1"}},{"base_weights":[4.9206386E0,1.7572933E1,4.607532E-1,-1.268094E1,2.0734653E1,-1.837232E1,1.4124634E1,1.1261168E0,4.6169445E1,-2.7571E0,-1.648586E-1,-3.81996E-1,4.3599977E0,-2.959254E0,9.452745E-1,5.97364E0,4.5571494E-1],"categories":[],"categories_nodes":[],"categories_segments":[],"categories_sizes":[],"default_left":[0,0,0,0,0,0,0,0,0,0,0,0,0,0,0,0,0],"id":47,"left_children":[1,-1,3,5,7,9,11,13,15,-1,-1,-1,-1,-1,-1,-1,-1],"loss_changes":[8.980993E4,0E0,3.1169205E4,1.1091316E4,2.289E4,9.030889E3,7.04255E3,7.1858667E3,1.101882E4,0E0,0E0,0E0,0E0,0E0,0E0,0E0,0E0],"parents":[2147483647,0,0,2,2,3,3,4,4,5,5,6,6,7,7,8,8],"right_children":[2,-1,4,6,8,10,12,14,16,-1,-1,-1,-1,-1,-1,-1,-1],"split_conditions":[2.4060752E0,1.7572933E1,1.1772726E0,2.3844788E3,1.4872E3,1.0953E3,1.5511551E-1,3.5856873E2,1.8792E3,-2.7571E0,-1.648586E-1,-3.81996E-1,4.3599977E0,-2.959254E0,9.452745E-1,5.97364E0,4.5571494E-1],"split_indices":[19,0,29,28,22,1,27,12,22,0,0,0,0,0,0,0,0],"split_type":[0,0,0,0,0,0,0,0,0,0,0,0,0,0,0,0,0],"sum_hessian":[1.17E2,2E0,1.15E2,7E1,4.5E1,5.8E1,1.2E1,2.6E1,1.9E1,3.7E1,2.1E1,8E0,4E0,5E0,2.1E1,1.4E1,5E0],"tree_param":{"num_deleted":"0","num_feature":"30","num_nodes":"17","size_leaf_vector":"1"}},{"base_weights":[1.8156216E0,1.6401417E1,-2.7067046E0,-4.446631E0,5.9672933E0,-4.369759E1,-2.070865E0,-5.7554626E0,-2.2380416E0,-5.685531E-1,2.5211701E0],"categories":[],"categories_nodes":[],"categories_segments":[],"categories_sizes":[],"default_left":[0,0,0,0,0,0,0,0,0,0,0],"id":48,"left_children":[1,-1,3,5,-1,7,9,-1,-1,-1,-1],"loss_changes":[8.1130555E4,0E0,1.19872295E4,9.794125E3,0E0,4.8426074E2,1.0103694E4,0E0,0E0,0E0,0E0],"parents":[2147483647,0,0,2,2,3,3,5,5,6,6],"right_children":[2,-1,4,6,-1,8,10,-1,-1,-1,-1],"split_conditions":[3.01E1,1.6401417E1,2.2915255E-1,3.963927E-1,5.9672933E0,1.0831E3,2.3844788E3,-5.7554626E0,-2.2380416E0,-5.685531E-1,2.5211701E0],"split_indices":[3,0,20,29,0,1,28,0,0,0,0],"split_type":[0,0,0,0,0,0,0,0,0,0,0],"sum_hessian":[1.09E2,2E0,1.07E2,1.05E2,2E0,5E0,1E2,2E0,3E0,8.9E1,1.1E1],"tree_param":{"num_deleted":"0","num_feature":"30","num_nodes":"11","size_leaf_vector":"1"}},{"base_weights":[4.431367E-1,-2.7582748E0,1.2408334E1,-7.9421744E0,1.9752123E1,2.455882E1,-1.0409194E1,7.379842E0,3.6419237E0,-5.442627E-1,3.0466166E0,-4.47147E0,-8.268763E-1,-1.2834605E0,1.0966328E0],"categories":[],"categories_nodes":[],"categories_segments":[],"categories_sizes":[],"default_left":[0,0,0,0,0,0,0,0,0,0,0,0,0,0,0],"id":49,"left_children":[1,3,-1,5,7,9,11,-1,13,-1,-1,-1,-1,-1,-1],"loss_changes":[4.7049387E4,1.3693105E4,0E0,7.8727964E3,1.888655E4,1.406418E3,6.16541E3,0E0,2.313002E3,0E0,0E0,0E0,0E0,0E0,0E0],"parents":[2147483647,0,0,1,1,3,3,4,4,5,5,6,6,8,8],"right_children":[2,4,-1,6,8,10,12,-1,14,-1,-1,-1,-1,-1,-1],"split_conditions":[3.5254686E0,1.4331354E0,1.2408334E1,9.05E2,3.857E3,6.108E2,9.219E2,7.379842E0,3.7745905E2,-5.442627E-1,3.0466166E0,-4.47147E0,-8.268763E-1,-1.2834605E0,1.0966328E0],"split_indices":[14,29,0,1,25,0,1,0,12,0,0,0,0,0,0],"split_type":[0,0,0,0,0,0,0,0,0,0,0,0,0,0,0],"sum_hessian":[1.17E2,1.15E2,2E0,9.4E1,2.1E1,6E0,8.8E1,4E0,1.7E1,1E0,5E0,4E0,8.4E1,5E0,1.2E1],"tree_param":{"num_deleted":"0","num_feature":"30","num_nodes":"15","size_leaf_vector":"1"}},{"base_weights":[2.5963526E0,1.4857829E1,-1.2680522E0,-5.2495184E0,3.301187E1,-8.27249E0,2.3691357E1,9.447283E0,5.500191E1,-2.7941287E0,-4.4811836E-1,-1.3515624E-2,3.9598224E0,1.6315857E0,-1.5882081E0,6.089375E0,1.2771362E0],"categories":[],"categories_nodes":[],"categories_segments":[],"categories_sizes":[],"default_left":[0,0,0,0,0,0,0,0,0,0,0,0,0,0,0,0,0],"id":50,"left_children":[1,-1,3,5,7,9,11,13,15,-1,-1,-1,-1,-1,-1,-1,-1],"loss_changes":[6.562787E4,0E0,1.5732514E4,9.20719E3,5.698616E3,6.8844097E3,3.7954048E3,1.4769661E3,7.1519727E2,0E0,0E0,0E0,0E0,0E0,0E0,0E0,0E0],"parents":[2147483647,0,0,2,2,3,3,4,4,5,5,6,6,7,7,8,8],"right_children":[2,-1,4,6,8,10,12,14,16,-1,-1,-1,-1,-1,-1,-1,-1],"split_conditions":[3.01E1,1.4857829E1,2.5522795E3,2.6636863E0,-1.4505258E-1,7.531949E2,1.0555875E3,2.387E2,1.2535E3,-2.7941287E0,-4.4811836E-1,-1.3515624E-2,3.9598224E0,1.6315857E0,-1.5882081E0,6.089375E0,1.2771362E0],"split_indices":[3,0,28,14,14,28,28,2,1,0,0,0,0,0,0,0,0],"split_type":[0,0,0,0,0,0,0,0,0,0,0,0,0,0,0,0,0],"sum_hessian":[1.15E2,2E0,1.13E2,1.02E2,1.1E1,9.3E1,9E0,6E0,5E0,1.4E1,7.9E1,4E0,5E0,5E0,1E0,4E0,1E0],"tree_param":{"num_deleted":"0","num_feature":"30","num_nodes":"17","size_leaf_vector":"1"}},{"base_weights":[9.995828E-1,9.378312E1,-1.3090966E0,1.1280884E1,2.7865846E0,-1.0073599E1,1.2230118E1,-3.7320164E1,-7.1206646E0,3.970547E1,8.905448E-1,-5.087079E0,-2.1725755E0,-3.0967834E0,-4.7364792E-1,1.5897204E0,6.880029E0,6.16413E-1,-2.5625803E0],"categories":[],"categories_nodes":[],"categories_segments":[],"categories_sizes":[],"default_left":[0,0,0,0,0,0,0,0,0,0,0,0,0,0,0,0,0,0,0],"id":51,"left_children":[1,3,5,-1,-1,7,9,11,13,15,17,-1,-1,-1,-1,-1,-1,-1,-1],"loss_changes":[2.6470287E4,6.1885547E2,1.4481604E4,0E0,0E0,5.688096E3,1.4919463E4,3.739912E2,3.7195347E3,8.604031E3,5.052228E3,0E0,0E0,0E0,0E0,0E0,0E0,0E0,0E0],"parents":[2147483647,0,0,1,1,2,2,5,5,6,6,7,7,8,8,9,9,10,10],"right_children":[2,4,6,-1,-1,8,10,12,14,16,18,-1,-1,-1,-1,-1,-1,-1,-1],"split_conditions":[2.4286816E0,2.408E2,1.1772726E0,1.1280884E1,2.7865846E0,3.9778334E-1,6.829E2,6.962E2,9.628E2,7.6875E2,9E0,-5.087079E0,-2.1725755E0,-3.0967834E0,-4.7364792E-1,1.5897204E0,6.880029E0,6.16413E-1,-2.5625803E0],"split_indices":[19,2,29,0,0,29,0,0,22,17,9,0,0,0,0,0,0,0,0],"split_type":[0,0,0,0,0,0,0,0,0,0,0,0,0,0,0,0,0,0,0],"sum_hessian":[1.22E2,2E0,1.2E2,1E0,1E0,7.3E1,4.7E1,6E0,6.7E1,1.3E1,3.4E1,2E0,4E0,5E0,6.2E1,8E0,5E0,2.9E1,5E0],"tree_param":{"num_deleted":"0","num_feature":"30","num_nodes":"19","size_leaf_vector":"1"}},{"base_weights":[3.5644574E0,1.3398389E1,1.0110005E-1,-2.869839E1,3.770632E0,-3.6787575E1,-1.3129741E1,-6.155159E-1,3.138467E1,-4.6594033E0,-2.1584897E0,-1.914208E0,-5.338051E-1,-5.712095E-1,1.846199E0,-2.4530091E0,3.7572734E0],"categories":[],"categories_nodes":[],"categories_segments":[],"categories_sizes":[],"default_left":[0,0,0,0,0,0,0,0,0,0,0,0,0,0,0,0,0],"id":52,"left_children":[1,-1,3,5,7,9,11,13,15,-1,-1,-1,-1,-1,-1,-1,-1],"loss_changes":[5.238239E4,0E0,1.2155805E4,1.1541797E3,1.2373482E4,1.8694824E2,1.7889636E2,8.758929E3,5.7657217E3,0E0,0E0,0E0,0E0,0E0,0E0,0E0,0E0],"parents":[2147483647,0,0,2,2,3,3,4,4,5,5,6,6,7,7,8,8],"right_children":[2,-1,4,6,8,10,12,14,16,-1,-1,-1,-1,-1,-1,-1,-1],"split_conditions":[3.01E1,1.3398389E1,4.4136152E-1,-7.22941E-1,2.3844788E3,1.12085E3,1.5987926E3,2.2335497E-1,9.0385E2,-4.6594033E0,-2.1584897E0,-1.914208E0,-5.338051E-1,-5.712095E-1,1.846199E0,-2.4530091E0,3.7572734E0],"split_indices":[3,0,29,14,28,16,12,20,16,0,0,0,0,0,0,0,0],"split_type":[0,0,0,0,0,0,0,0,0,0,0,0,0,0,0,0,0],"sum_hessian":[1.15E2,2E0,1.13E2,1.2E1,1.01E2,7E0,5E0,8.8E1,1.3E1,3E0,4E0,2E0,3E0,7E1,1.8E1,1E0,1.2E1],"tree_param":{"num_deleted":"0","num_feature":"30","num_nodes":"17","size_leaf_vector":"1"}},{"base_weights":[2.2641313E-1,7.4468017E0,-1.7642229E0,-3.4447153E0,3.4887257E1,1.2433078E1,-6.974054E0,4.4110293E0,-1.0024414E-1,3.313079E0,1.1961452E-1,-1.0018904E0,6.51113E-1],"categories":[],"categories_nodes":[],"categories_segments":[],"categories_sizes":[],"default_left":[0,0,0,0,0,0,0,0,0,0,0,0,0],"id":53,"left_children":[1,-1,3,5,7,9,11,-1,-1,-1,-1,-1,-1],"loss_changes":[1.697921E4,0E0,7.0185396E3,6.1388247E3,1.6992778E3,4.611947E3,3.719607E3,0E0,0E0,0E0,0E0,0E0,0E0],"parents":[2147483647,0,0,2,2,3,3,4,4,5,5,6,6],"right_children":[2,-1,4,6,8,10,12,-1,-1,-1,-1,-1,-1],"split_conditions":[3.02E1,7.4468017E0,1.7691776E0,1E0,1.0956E3,6.678E3,1.3970144E0,4.4110293E0,-1.0024414E-1,3.313079E0,1.1961452E-1,-1.0018904E0,6.51113E-1],"split_indices":[3,0,29,11,1,25,29,0,0,0,0,0,0],"split_type":[0,0,0,0,0,0,0,0,0,0,0,0,0],"sum_hessian":[1.13E2,2E0,1.11E2,1.07E2,4E0,1.9E1,8.8E1,3E0,1E0,6E0,1.3E1,7.2E1,1.6E1],"tree_param":{"num_deleted":"0","num_feature":"30","num_nodes":"13","size_leaf_vector":"1"}},{"base_weights":[2.1033132E0,1.2008708E1,-9.1409856E-1,-1.5534793E1,4.246761E0,-6.4808154E0,-2.171373E1,1.0307887E0,2.2721153E1,-1.1063237E0,2.6545334E0,-2.6036758E0,-7.3944093E-3,-3.377709E-1,1.5423597E0,1.1265218E0,3.8797607E0],"categories":[],"categories_nodes":[],"categories_segments":[],"categories_sizes":[],"default_left":[0,0,0,0,0,0,0,0,0,0,0,0,0,0,0,0,0],"id":54,"left_children":[1,-1,3,5,7,9,11,13,15,-1,-1,-1,-1,-1,-1,-1,-1],"loss_changes":[4.2830445E4,0E0,8.969703E3,1.5935405E3,5.2049346E3,2.4124336E3,1.6819629E3,4.8743467E3,1.9571572E3,0E0,0E0,0E0,0E0,0E0,0E0,0E0,0E0],"parents":[2147483647,0,0,2,2,3,3,4,4,5,5,6,6,7,7,8,8],"right_children":[2,-1,4,6,8,10,12,14,16,-1,-1,-1,-1,-1,-1,-1,-1],"split_conditions":[2.4060752E0,1.2008708E1,1.0555875E3,1.15830116E-1,1.4331354E0,3.2E1,7.5412955E0,2.3844788E3,1.10465E3,-1.1063237E0,2.6545334E0,-2.6036758E0,-7.3944093E-3,-3.377709E-1,1.5423597E0,1.1265218E0,3.8797607E0],"split_indices":[19,0,28,27,29,6,23,28,16,0,0,0,0,0,0,0,0],"split_type":[0,0,0,0,0,0,0,0,0,0,0,0,0,0,0,0,0],"sum_hessian":[1.19E2,2E0,1.17E2,3E1,8.7E1,1.3E1,1.7E1,7.5E1,1.2E1,1.2E1,1E0,1.4E1,3E0,5.8E1,1.7E1,8E0,4E0],"tree_param":{"num_deleted":"0","num_feature":"30","num_nodes":"17","size_leaf_vector":"1"}},{"base_weights":[3.5839167E0,1.1208121E1,6.717412E-1,-7.140669E0,1.404845E1,-1.3137664E1,1.1580187E1,3.2872662E-1,3.872204E1,-7.2231483E-1,-3.3729417E0,-1.0705119E0,2.097493E0,-1.1651944E0,1.9903576E0,2.0286062E0,6.2994995E0],"categories":[],"categories_nodes":[],"categories_segments":[],"categories_sizes":[],"default_left":[0,0,0,0,0,0,0,0,0,0,0,0,0,0,0,0,0],"id":55,"left_children":[1,-1,3,5,7,9,11,13,15,-1,-1,-1,-1,-1,-1,-1,-1],"loss_changes":[3.6260473E4,0E0,1.1909306E4,8.235496E3,1.4204893E4,6.454831E3,3.993104E3,6.7984697E3,5.4345156E3,0E0,0E0,0E0,0E0,0E0,0E0,0E0,0E0],"parents":[2147483647,0,0,2,2,3,3,4,4,5,5,6,6,7,7,8,8],"right_children":[2,-1,4,6,8,10,12,14,16,-1,-1,-1,-1,-1,-1,-1,-1],"split_conditions":[2.4060752E0,1.1208121E1,1.1772726E0,1.9863057E3,1.6311587E3,3.3506763E0,6.022177E0,2.6565282E0,2.0800911E-1,-7.2231483E-1,-3.3729417E0,-1.0705119E0,2.097493E0,-1.1651944E0,1.9903576E0,2.0286062E0,6.2994995E0],"split_indices":[19,0,29,28,28,19,23,14,20,0,0,0,0,0,0,0,0],"split_type":[0,0,0,0,0,0,0,0,0,0,0,0,0,0,0,0,0],"sum_hessian":[1.14E2,2E0,1.12E2,7.1E1,4.1E1,5.4E1,1.7E1,2.7E1,1.4E1,4.3E1,1.1E1,5E0,1.2E1,1.7E1,1E1,9E0,5E0],"tree_param":{"num_deleted":"0","num_feature":"30","num_nodes":"17","size_leaf_vector":"1"}},{"base_weights":[3.5254474E0,-1.524245E-1,5.34612E1,2.075749E1,-4.593876E0,1.0867645E1,8.268946E0,-9.1239166E-1,3.6017647E1,-2.0942738E0,-3.0361973E1,2.1019816E0,-9.794434E-1,-2.0829256E0,4.908482E-1,4.5484185E0,-1.2323405E-1,-1.5593857E0,7.7006236E-2,-3.4030824E0,-4.1744384E-1],"categories":[],"categories_nodes":[],"categories_segments":[],"categories_sizes":[],"default_left":[0,0,0,0,0,0,0,0,0,0,0,0,0,0,0,0,0,0,0,0,0],"id":56,"left_children":[1,3,5,7,9,11,-1,13,15,17,19,-1,-1,-1,-1,-1,-1,-1,-1,-1,-1],"loss_changes":[1.8741193E4,9.010913E3,7.8159062E3,5.6545205E3,5.089213E3,1.0449369E3,0E0,1.0297084E3,3.582337E3,2.8733916E3,5.304878E2,0E0,0E0,0E0,0E0,0E0,0E0,0E0,0E0,0E0,0E0],"parents":[2147483647,0,0,1,1,2,2,3,3,4,4,5,5,7,7,8,8,9,9,10,10],"right_children":[2,4,6,8,10,12,-1,14,16,18,20,-1,-1,-1,-1,-1,-1,-1,-1,-1,-1],"split_conditions":[1.698279E0,1E0,1.0991E3,1.1968725E0,1.0383654E0,3.1E1,8.268946E0,6.108E2,1.8792E3,4.4136152E-1,6.827E2,2.1019816E0,-9.794434E-1,-2.0829256E0,4.908482E-1,4.5484185E0,-1.2323405E-1,-1.5593857E0,7.7006236E-2,-3.4030824E0,-4.1744384E-1],"split_indices":[29,11,22,29,24,6,0,0,22,29,0,0,0,0,0,0,0,0,0,0,0],"split_type":[0,0,0,0,0,0,0,0,0,0,0,0,0,0,0,0,0,0,0,0,0],"sum_hessian":[1.01E2,9.5E1,6E0,1.6E1,7.9E1,3E0,3E0,7E0,9E0,7.3E1,6E0,2E0,1E0,1E0,6E0,7E0,2E0,1.2E1,6.1E1,5E0,1E0],"tree_param":{"num_deleted":"0","num_feature":"30","num_nodes":"21","size_leaf_vector":"1"}},{"base_weights":[6.902141E-1,8.100293E0,-7.00438E-1,-1.2334778E1,3.6877894E0,3.1900668E0,-1.7642647E1,-1.6633977E-1,2.7147604E1,-1.9733719E0,1.7940912E0,-2.2112923E0,-7.735196E-1,6.543736E-1,-1.2805854E0,5.12364E0,8.698654E-1],"categories":[],"categories_nodes":[],"categories_segments":[],"categories_sizes":[],"default_left":[0,0,0,0,0,0,0,0,0,0,0,0,0,0,0,0,0],"id":57,"left_children":[1,-1,3,5,7,9,11,13,15,-1,-1,-1,-1,-1,-1,-1,-1],"loss_changes":[1.3124122E4,0E0,5.9677676E3,2.6932036E3,7.6899736E3,3.3973481E3,8.9188916E2,6.3598936E3,4.8872686E3,0E0,0E0,0E0,0E0,0E0,0E0,0E0,0E0],"parents":[2147483647,0,0,2,2,3,3,4,4,5,5,6,6,7,7,8,8],"right_children":[2,-1,4,6,8,10,12,14,16,-1,-1,-1,-1,-1,-1,-1,-1],"split_conditions":[3.01E1,8.100293E0,1.0555875E3,1.02535E3,1.4331354E0,8.953E2,1.3970144E0,6.3E0,1.9E1,-1.9733719E0,1.7940912E0,-2.2112923E0,-7.735196E-1,6.543736E-1,-1.2805854E0,5.12364E0,8.698654E-1],"split_indices":[3,0,28,16,29,16,29,9,6,0,0,0,0,0,0,0,0],"split_type":[0,0,0,0,0,0,0,0,0,0,0,0,0,0,0,0,0],"sum_hessian":[1.16E2,1E0,1.15E2,3.1E1,8.4E1,8E0,2.3E1,7.3E1,1.1E1,3E0,5E0,1.5E1,8E0,4.8E1,2.5E1,4E0,7E0],"tree_param":{"num_deleted":"0","num_feature":"30","num_nodes":"17","size_leaf_vector":"1"}},{"base_weights":[6.4787126E0,9.369645E0,4.0187864E0,-8.7625104E-1,1.5824854E1,-4.480546E0,1.932075E1,2.3279482E1,-2.9086035E1,5.003305E-1,-9.22828E-1,4.135254E-1,4.8657928E0,1.5672504E0,4.855965E0,-3.4918153E0,-2.8787842E-1],"categories":[],"categories_nodes":[],"categories_segments":[],"categories_sizes":[],"default_left":[0,0,0,0,0,0,0,0,0,0,0,0,0,0,0,0,0],"id":58,"left_children":[1,-1,3,5,7,9,11,13,15,-1,-1,-1,-1,-1,-1,-1,-1],"loss_changes":[2.3438414E4,0E0,6.313101E3,5.7646514E3,1.1390515E4,3.0629678E3,5.1447827E3,4.623509E3,6.636968E2,0E0,0E0,0E0,0E0,0E0,0E0,0E0,0E0],"parents":[2147483647,0,0,2,2,3,3,4,4,5,5,6,6,7,7,8,8],"right_children":[2,-1,4,6,8,10,12,14,16,-1,-1,-1,-1,-1,-1,-1,-1],"split_conditions":[3.01E1,9.369645E0,1.8410493E3,2.6636863E0,1.804893E4,9.00474E-2,3.1361651E0,9.5746465E-2,3.38E1,5.003305E-1,-9.22828E-1,4.135254E-1,4.8657928E0,1.5672504E0,4.855965E0,-3.4918153E0,-2.8787842E-1],"split_indices":[3,0,12,14,13,27,19,14,3,0,0,0,0,0,0,0,0],"split_type":[0,0,0,0,0,0,0,0,0,0,0,0,0,0,0,0,0],"sum_hessian":[1.1E2,2E0,1.08E2,7.7E1,3.1E1,6.6E1,1.1E1,2.7E1,4E0,2.2E1,4.4E1,8E0,3E0,2.2E1,5E0,3E0,1E0],"tree_param":{"num_deleted":"0","num_feature":"30","num_nodes":"17","size_leaf_vector":"1"}},{"base_weights":[2.0404506E0,8.745004E0,-1.2987883E-1,-1.7940882E1,2.4157872E0,-3.3241043E0,-1.1345756E1,-9.987957E0,7.2802153E0,-3.1414065E-1,-1.5055255E0,-3.8692482E0,-4.083704E-1,-1.0554543E0,1.0460783E0],"categories":[],"categories_nodes":[],"categories_segments":[],"categories_sizes":[],"default_left":[0,0,0,0,0,0,0,0,0,0,0,0,0,0,0],"id":59,"left_children":[1,-1,3,5,7,-1,9,11,13,-1,-1,-1,-1,-1,-1],"loss_changes":[2.2440756E4,0E0,5.438904E3,1.1364531E3,6.408112E3,0E0,3.1791357E2,4.9263545E3,4.4214824E3,0E0,0E0,0E0,0E0,0E0,0E0],"parents":[2147483647,0,0,2,2,3,3,4,4,6,6,7,7,8,8],"right_children":[2,-1,4,6,8,-1,10,12,14,-1,-1,-1,-1,-1,-1],"split_conditions":[3.01E1,8.745004E0,4.346393E-1,6.962E2,2.6E0,-3.3241043E0,7.406E2,6.7802E2,7.531949E2,-3.1414065E-1,-1.5055255E0,-3.8692482E0,-4.083704E-1,-1.0554543E0,1.0460783E0],"split_indices":[3,0,29,0,9,0,0,26,28,0,0,0,0,0,0],"split_type":[0,0,0,0,0,0,0,0,0,0,0,0,0,0,0],"sum_hessian":[1.2E2,2E0,1.18E2,1.4E1,1.04E2,3E0,1.1E1,2.9E1,7.5E1,4E0,7E0,4E0,2.5E1,1.1E1,6.4E1],"tree_param":{"num_deleted":"0","num_feature":"30","num_nodes":"15","size_leaf_vector":"1"}},{"base_weights":[1.3676093E0,-2.4616828E0,5.4806747E1,-4.764498E0,1.7125488E1,9.822418E0,7.9832864E0,8.094986E0,-7.8428545E0,4.40849E0,3.2406955E0,1.6310629E0,-4.821106E-1,1.1932814E-1,4.6806884E0,-2.9553697E-1,-1.8256077E0,-8.7991333E-1,1.0727133E0],"categories":[],"categories_nodes":[],"categories_segments":[],"categories_sizes":[],"default_left":[0,0,0,0,0,0,0,0,0,0,0,0,0,0,0,0,0,0,0],"id":60,"left_children":[1,3,5,7,9,11,-1,13,15,-1,17,-1,-1,-1,-1,-1,-1,-1,-1],"loss_changes":[2.4486371E4,5.1334263E3,8.222111E3,4.061681E3,4.349044E3,4.5867636E2,0E0,5.287708E3,4.1193926E3,0E0,9.056082E2,0E0,0E0,0E0,0E0,0E0,0E0,0E0,0E0],"parents":[2147483647,0,0,1,1,2,2,3,3,4,4,5,5,7,7,8,8,10,10],"right_children":[2,4,6,8,10,12,-1,14,16,-1,18,-1,-1,-1,-1,-1,-1,-1,-1],"split_conditions":[1.698279E0,2.5522795E3,5.8120703E2,1E0,1.01015E3,1.0956E3,7.9832864E0,1.3377984E0,1.066705E4,4.40849E0,-6.822889E-1,1.6310629E0,-4.821106E-1,1.1932814E-1,4.6806884E0,-2.9553697E-1,-1.8256077E0,-8.7991333E-1,1.0727133E0],"split_indices":[29,28,12,11,16,1,0,29,13,0,14,0,0,0,0,0,0,0,0],"split_type":[0,0,0,0,0,0,0,0,0,0,0,0,0,0,0,0,0,0,0],"sum_hessian":[1.18E2,1.11E2,7E0,1E2,1.1E1,3E0,4E0,1.9E1,8.1E1,3E0,8E0,2E0,1E0,1.7E1,2E0,5.6E1,2.5E1,3E0,5E0],"tree_param":{"num_deleted":"0","num_feature":"30","num_nodes":"19","size_leaf_vector":"1"}},{"base_weights":[3.2780452E0,7.6297693E0,1.3613472E0,-2.5880125E0,1.2273721E1,-5.3963304E0,1.9294836E1,3.1534626E1,-1.550778E0,8.242354E-2,-1.3715395E0,6.82634E-1,4.611255E0,2.028935E0,5.176416E0,6.5016437E-1,-2.539789E0],"categories":[],"categories_nodes":[],"categories_segments":[],"categories_sizes":[],"default_left":[0,0,0,0,0,0,0,0,0,0,0,0,0,0,0,0,0],"id":61,"left_children":[1,-1,3,5,7,9,11,13,15,-1,-1,-1,-1,-1,-1,-1,-1],"loss_changes":[1.6411012E4,0E0,5.031004E3,5.389165E3,8.303346E3,3.9959995E3,3.028986E3,1.9070664E3,3.8136409E3,0E0,0E0,0E0,0E0,0E0,0E0,0E0,0E0],"parents":[2147483647,0,0,2,2,3,3,4,4,5,5,6,6,7,7,8,8],"right_children":[2,-1,4,6,8,10,12,14,16,-1,-1,-1,-1,-1,-1,-1,-1],"split_conditions":[3.01E1,7.6297693E0,2.093096E3,1.5930235E0,2.19E2,6.643925E0,7.027854E0,9.676929E-1,1.921571E4,8.242354E-2,-1.3715395E0,6.82634E-1,4.611255E0,2.028935E0,5.176416E0,6.5016437E-1,-2.539789E0],"split_indices":[3,0,12,29,7,23,23,29,13,0,0,0,0,0,0,0,0],"split_type":[0,0,0,0,0,0,0,0,0,0,0,0,0,0,0,0,0],"sum_hessian":[1.17E2,2E0,1.15E2,8.5E1,3E1,7.6E1,9E0,1.2E1,1.8E1,4.4E1,3.2E1,7E0,2E0,9E0,3E0,1.4E1,4E0],"tree_param":{"num_deleted":"0","num_feature":"30","num_nodes":"17","size_leaf_vector":"1"}},{"base_weights":[3.5729156E0,7.12111E0,1.7126681E0,-1.7909668E1,4.050222E0,-3.3957386E0,-5.641136E0,2.3292843E-1,1.9307749E1,-1.0671591E-1,-1.2908711E0,-1.1303462E-1,3.6054852E0,9.746985E-1,3.99917E0],"categories":[],"categories_nodes":[],"categories_segments":[],"categories_sizes":[],"default_left":[0,0,0,0,0,0,0,0,0,0,0,0,0,0,0],"id":62,"left_children":[1,-1,3,5,7,-1,9,11,13,-1,-1,-1,-1,-1,-1],"loss_changes":[1.4096124E4,0E0,5.163915E3,2.1710251E3,5.8197476E3,0E0,2.5215814E2,3.996399E3,3.5652896E3,0E0,0E0,0E0,0E0,0E0,0E0],"parents":[2147483647,0,0,2,2,3,3,4,4,6,6,7,7,8,8],"right_children":[2,-1,4,6,8,-1,10,12,14,-1,-1,-1,-1,-1,-1],"split_conditions":[3.01E1,7.12111E0,6.7802E2,2.6E0,2.093096E3,-3.3957386E0,2.3396294E3,2.2875394E-1,1.0830731E0,-1.0671591E-1,-1.2908711E0,-1.1303462E-1,3.6054852E0,9.746985E-1,3.99917E0],"split_indices":[3,0,26,9,12,0,12,20,29,0,0,0,0,0,0],"split_type":[0,0,0,0,0,0,0,0,0,0,0,0,0,0,0],"sum_hessian":[1.12E2,2E0,1.1E2,1.1E1,9.9E1,4E0,7E0,8E1,1.9E1,5E0,2E0,7.8E1,2E0,1.4E1,5E0],"tree_param":{"num_deleted":"0","num_feature":"30","num_nodes":"15","size_leaf_vector":"1"}},{"base_weights":[1.5718548E0,6.646371E0,-2.1221244E-1,-1.0699451E1,3.161212E0,-1.2886587E1,5.0982285E0,6.8600893E0,-8.262091E0,-2.1088586E0,-7.4675524E-1,9.886444E-1,2.0667521E-2,9.477401E-1,-1.5806222E0,7.6354635E-1,-1.5130143E0],"categories":[],"categories_nodes":[],"categories_segments":[],"categories_sizes":[],"default_left":[0,0,0,0,0,0,0,0,0,0,0,0,0,0,0,0,0],"id":63,"left_children":[1,-1,3,5,7,9,11,13,15,-1,-1,-1,-1,-1,-1,-1,-1],"loss_changes":[1.2980505E4,0E0,3.9253928E3,9.98594E2,3.6059639E3,9.092461E2,9.164396E1,3.946589E3,2.4084155E3,0E0,0E0,0E0,0E0,0E0,0E0,0E0,0E0],"parents":[2147483647,0,0,2,2,3,3,4,4,5,5,6,6,7,7,8,8],"right_children":[2,-1,4,6,8,10,12,14,16,-1,-1,-1,-1,-1,-1,-1,-1],"split_conditions":[3.01E1,6.646371E0,1.0555875E3,3.33E1,8.44E2,7.4359045E2,6.108E2,2.61E2,1.2327134E3,-2.1088586E0,-7.4675524E-1,9.886444E-1,2.0667521E-2,9.477401E-1,-1.5806222E0,7.6354635E-1,-1.5130143E0],"split_indices":[3,0,28,3,17,28,0,2,12,0,0,0,0,0,0,0,0],"split_type":[0,0,0,0,0,0,0,0,0,0,0,0,0,0,0,0,0],"sum_hessian":[1.11E2,2E0,1.09E2,2.6E1,8.3E1,2.3E1,3E0,6.3E1,2E1,8E0,1.5E1,1E0,2E0,5.7E1,6E0,6E0,1.4E1],"tree_param":{"num_deleted":"0","num_feature":"30","num_nodes":"17","size_leaf_vector":"1"}},{"base_weights":[9.8682207E-1,6.2032714E0,-6.2830514E-1,-8.421321E0,2.7889931E0,-4.9076586E0,-1.9666473E1,6.706916E0,-1.1078681E1,3.6847183E-1,-1.1582236E0,-1.0302112E0,-2.6455307E0,1.1734575E-1,1.6965932E0,9.7749996E-1,-1.773509E0],"categories":[],"categories_nodes":[],"categories_segments":[],"categories_sizes":[],"default_left":[0,0,0,0,0,0,0,0,0,0,0,0,0,0,0,0,0],"id":64,"left_children":[1,-1,3,5,7,9,11,13,15,-1,-1,-1,-1,-1,-1,-1,-1],"loss_changes":[1.1476214E4,0E0,3.0594277E3,1.2863918E3,4.4209023E3,1.6484908E3,2.3603906E2,3.5564646E3,2.6719517E3,0E0,0E0,0E0,0E0,0E0,0E0,0E0,0E0],"parents":[2147483647,0,0,2,2,3,3,4,4,5,5,6,6,7,7,8,8],"right_children":[2,-1,4,6,8,10,12,14,16,-1,-1,-1,-1,-1,-1,-1,-1],"split_conditions":[3.01E1,6.2032714E0,1.0555875E3,2.7314375E1,8.44E2,3.23E1,5.312322E0,3.25E1,7.18683E3,3.6847183E-1,-1.1582236E0,-1.0302112E0,-2.6455307E0,1.1734575E-1,1.6965932E0,9.7749996E-1,-1.773509E0],"split_indices":[3,0,28,21,17,3,23,3,13,0,0,0,0,0,0,0,0],"split_type":[0,0,0,0,0,0,0,0,0,0,0,0,0,0,0,0,0],"sum_hessian":[1.15E2,2E0,1.13E2,3.4E1,7.9E1,2.7E1,7E0,6.2E1,1.7E1,1.2E1,1.5E1,4E0,3E0,4.1E1,2.1E1,4E0,1.3E1],"tree_param":{"num_deleted":"0","num_feature":"30","num_nodes":"17","size_leaf_vector":"1"}},{"base_weights":[6.491258E-1,-6.936401E-1,5.324821E0,1.6475762E0,-1.3791929E1,-3.8147337E0,7.7583504E0,2.3876038E-1,-2.7849148E1,1.283493E0,-6.5675545E-1,2.0758712E-1,3.2151775E0,-9.937035E-1,6.0193914E-1,-3.0488434E0,-3.3674318E-1],"categories":[],"categories_nodes":[],"categories_segments":[],"categories_sizes":[],"default_left":[0,0,0,0,0,0,0,0,0,0,0,0,0,0,0,0,0],"id":65,"left_children":[1,3,-1,5,7,9,11,13,15,-1,-1,-1,-1,-1,-1,-1,-1],"loss_changes":[8.512326E3,3.6413027E3,0E0,3.4008691E3,3.5568335E3,2.5593057E3,6.586783E3,6.480401E2,4.7886084E2,0E0,0E0,0E0,0E0,0E0,0E0,0E0,0E0],"parents":[2147483647,0,0,1,1,3,3,4,4,5,5,6,6,7,7,8,8],"right_children":[2,4,-1,6,8,10,12,14,16,-1,-1,-1,-1,-1,-1,-1,-1],"split_conditions":[3.5254686E0,9.2E0,5.324821E0,1.0897903E-2,1.11111E3,1.924E2,1.910201E3,-7.077693E-1,3.34E1,1.283493E0,-6.5675545E-1,2.0758712E-1,3.2151775E0,-9.937035E-1,6.0193914E-1,-3.0488434E0,-3.3674318E-1],"split_indices":[14,9,0,14,26,2,12,14,3,0,0,0,0,0,0,0,0],"split_type":[0,0,0,0,0,0,0,0,0,0,0,0,0,0,0,0,0],"sum_hessian":[1.19E2,1.17E2,2E0,1E2,1.7E1,5.3E1,4.7E1,9E0,8E0,7E0,4.6E1,3.9E1,8E0,3E0,6E0,7E0,1E0],"tree_param":{"num_deleted":"0","num_feature":"30","num_nodes":"17","size_leaf_vector":"1"}},{"base_weights":[-1.2548838E0,4.954669E1,-3.107649E0,5.713867E0,1.3385376E0,-9.498331E-1,-1.7682127E1,-2.495972E0,1.1224509E1,-2.1315176E0,-2.9078644E1,-1.3013794E-1,-2.6659775E0,1.797993E0,-4.7797855E-2,-9.191765E-1,5.461609E-1,-3.4851544E0,-7.839966E-1],"categories":[],"categories_nodes":[],"categories_segments":[],"categories_sizes":[],"default_left":[0,0,0,0,0,0,0,0,0,0,0,0,0,0,0,0,0,0,0],"id":66,"left_children":[1,3,5,-1,-1,7,9,11,13,15,17,-1,-1,-1,-1,-1,-1,-1,-1],"loss_changes":[1.0695795E4,3.333213E2,3.4111504E3,0E0,0E0,1.8350454E3,2.4191372E3,2.447773E3,8.782014E2,4.254673E2,7.0763477E2,0E0,0E0,0E0,0E0,0E0,0E0,0E0,0E0],"parents":[2147483647,0,0,1,1,2,2,5,5,6,6,7,7,8,8,9,9,10,10],"right_children":[2,4,6,-1,-1,8,10,12,14,16,18,-1,-1,-1,-1,-1,-1,-1,-1],"split_conditions":[3.02E1,2.558E2,9.1E0,5.713867E0,1.3385376E0,1.559004E0,7.692308E-2,2.3366761E0,1.0638E3,-7.077693E-1,7.5706665E2,-1.3013794E-1,-2.6659775E0,1.797993E0,-4.7797855E-2,-9.191765E-1,5.461609E-1,-3.4851544E0,-7.839966E-1],"split_indices":[3,2,9,0,0,29,27,14,16,14,17,0,0,0,0,0,0,0,0],"split_type":[0,0,0,0,0,0,0,0,0,0,0,0,0,0,0,0,0,0,0],"sum_hessian":[1.11E2,3E0,1.08E2,2E0,1E0,9.5E1,1.3E1,8.5E1,1E1,6E0,7E0,8.2E1,3E0,6E0,4E0,3E0,3E0,5E0,2E0],"tree_param":{"num_deleted":"0","num_feature":"30","num_nodes":"19","size_leaf_vector":"1"}},{"base_weights":[1.7515181E0,4.6355103E1,1.7111593E-1,5.3329425E0,1.2716064E0,1.3411223E0,-2.1112518E1,-1.8164257E0,1.14908495E1,-8.3708805E-1,-3.1063864E0,-4.59651E-1,1.3720689E0,-1.284488E0,2.113269E0],"categories":[],"categories_nodes":[],"categories_segments":[],"categories_sizes":[],"default_left":[0,0,0,0,0,0,0,0,0,0,0,0,0,0,0],"id":67,"left_children":[1,3,5,-1,-1,7,9,11,13,-1,-1,-1,-1,-1,-1],"loss_changes":[8.239585E3,2.6029785E2,2.8671409E3,0E0,0E0,3.5141313E3,5.0074683E2,3.6914043E3,6.372119E3,0E0,0E0,0E0,0E0,0E0,0E0],"parents":[2147483647,0,0,1,1,2,2,5,5,6,6,7,7,8,8],"right_children":[2,4,6,-1,-1,8,10,12,14,-1,-1,-1,-1,-1,-1],"split_conditions":[2.4286816E0,1.251E3,1.921571E4,5.3329425E0,1.2716064E0,2.0612632E3,2.075E1,2.6565282E0,6.022177E0,-8.3708805E-1,-3.1063864E0,-4.59651E-1,1.3720689E0,-1.284488E0,2.113269E0],"split_indices":[19,1,13,0,0,12,4,14,23,0,0,0,0,0,0],"split_type":[0,0,0,0,0,0,0,0,0,0,0,0,0,0,0],"sum_hessian":[1.16E2,3E0,1.13E2,2E0,1E0,1.08E2,5E0,8.3E1,2.5E1,3E0,2E0,7.1E1,1.2E1,7E0,1.8E1],"tree_param":{"num_deleted":"0","num_feature":"30","num_nodes":"15","size_leaf_vector":"1"}},{"base_weights":[2.1254451E0,-2.9103043E0,6.957912E0,2.7386875E0,-1.7910076E1,-5.957575E0,1.4065164E1,8.045428E0,-6.7192764E0,-2.8525013E1,-1.8729946E-1,-1.1898071E1,1.0645641E0,3.3627696E0,2.5153854E1,2.524659E-1,2.4247072E0,-1.8202622E0,4.234728E-1,-2.6471862E-1,-3.1106193E0,-9.7575074E-1,1.582548E0,6.921204E-1,-1.6354046E0,6.786224E-1,-4.8345238E-1,-7.8159916E-1,1.2398174E0,3.227553E0,-1.2419434E-1],"categories":[],"categories_nodes":[],"categories_segments":[],"categories_sizes":[],"default_left":[0,0,0,0,0,0,0,0,0,0,0,0,0,0,0,0,0,0,0,0,0,0,0,0,0,0,0,0,0,0,0],"id":68,"left_children":[1,3,5,7,9,11,13,15,17,19,21,23,25,27,29,-1,-1,-1,-1,-1,-1,-1,-1,-1,-1,-1,-1,-1,-1,-1,-1],"loss_changes":[2.8674558E3,4.963598E3,5.591411E3,2.2122708E3,3.0046758E3,9.3039606E2,4.5437593E3,2.4432593E3,2.0897007E3,5.8560986E2,1.2271366E3,1.1194884E3,4.0408646E2,2.2180007E3,3.611747E3,0E0,0E0,0E0,0E0,0E0,0E0,0E0,0E0,0E0,0E0,0E0,0E0,0E0,0E0,0E0,0E0],"parents":[2147483647,0,0,1,1,2,2,3,3,4,4,5,5,6,6,7,7,8,8,9,9,10,10,11,11,12,12,13,13,14,14],"right_children":[2,4,6,8,10,12,14,16,18,20,22,24,26,28,30,-1,-1,-1,-1,-1,-1,-1,-1,-1,-1,-1,-1,-1,-1,-1,-1],"split_conditions":[1.0897903E-2,7.3493335E2,1.1161804E3,-2.5103393E-1,2.1847105E-1,1.0883E3,2.0800911E-1,-6.680078E-1,1.0562E3,9.097E2,5.1E1,1.827E2,1E0,2E0,8.925234E0,2.524659E-1,2.4247072E0,-1.8202622E0,4.234728E-1,-2.6471862E-1,-3.1106193E0,-9.7575074E-1,1.582548E0,6.921204E-1,-1.6354046E0,6.786224E-1,-4.8345238E-1,-7.8159916E-1,1.2398174E0,3.227553E0,-1.2419434E-1],"split_indices":[14,17,28,14,20,1,20,14,22,1,6,2,10,10,23,0,0,0,0,0,0,0,0,0,0,0,0,0,0,0,0],"split_type":[0,0,0,0,0,0,0,0,0,0,0,0,0,0,0,0,0,0,0,0,0,0,0,0,0,0,0,0,0,0,0],"sum_hessian":[1.16E2,5.7E1,5.9E1,4.2E1,1.5E1,2.1E1,3.8E1,2.7E1,1.5E1,9E0,6E0,1.1E1,1E1,2E1,1.8E1,2.1E1,6E0,7E0,8E0,1E0,8E0,4E0,2E0,2E0,9E0,5E0,5E0,9E0,1.1E1,1.4E1,4E0],"tree_param":{"num_deleted":"0","num_feature":"30","num_nodes":"31","size_leaf_vector":"1"}},{"base_weights":[-9.500068E-2,4.894759E0,-1.4316623E0,-4.186839E0,8.615506E0,-7.550975E0,5.502537E0,1.6847599E1,-4.5941834E0,2.0604916E-1,-1.1868527E0,1.4979032E0,-2.9393077E-1,-3.3072333E-3,2.8105056E0,-1.4064301E0,1.4736241E-1],"categories":[],"categories_nodes":[],"categories_segments":[],"categories_sizes":[],"default_left":[0,0,0,0,0,0,0,0,0,0,0,0,0,0,0,0,0],"id":69,"left_children":[1,-1,3,5,7,9,11,13,15,-1,-1,-1,-1,-1,-1,-1,-1],"loss_changes":[7.412052E3,0E0,3.0810618E3,2.877434E3,2.6872427E3,2.7218252E3,1.8840072E3,2.8514307E3,5.95354E2,0E0,0E0,0E0,0E0,0E0,0E0,0E0,0E0],"parents":[2147483647,0,0,2,2,3,3,4,4,5,5,6,6,7,7,8,8],"right_children":[2,-1,4,6,8,10,12,14,16,-1,-1,-1,-1,-1,-1,-1,-1],"split_conditions":[3.01E1,4.894759E0,2.2261296E-1,1.1027E3,1.29558E3,1.951E2,2.387E2,4.0605E3,2.1E0,2.0604916E-1,-1.1868527E0,1.4979032E0,-2.9393077E-1,-3.3072333E-3,2.8105056E0,-1.4064301E0,1.4736241E-1],"split_indices":[3,0,20,15,26,2,2,13,9,0,0,0,0,0,0,0,0],"split_type":[0,0,0,0,0,0,0,0,0,0,0,0,0,0,0,0,0],"sum_hessian":[1.11E2,2E0,1.09E2,8.6E1,2.3E1,6.4E1,2.2E1,1.4E1,9E0,2E1,4.4E1,1E1,1.2E1,6E0,8E0,3E0,6E0],"tree_param":{"num_deleted":"0","num_feature":"30","num_nodes":"17","size_leaf_vector":"1"}},{"base_weights":[1.3166758E0,-9.6390957E-1,2.8284004E1,-1.800775E1,5.9526694E-1,2.1866455E0,4.872456E0,-2.946168E0,-1.0526388E0,-1.6528113E0,1.2360474E1,-6.5625817E-1,1.020699E0,6.9816783E-3,-2.0611694E0,3.5501155E-1,2.645272E0],"categories":[],"categories_nodes":[],"categories_segments":[],"categories_sizes":[],"default_left":[0,0,0,0,0,0,0,0,0,0,0,0,0,0,0,0,0],"id":70,"left_children":[1,3,5,7,9,11,-1,-1,-1,13,15,-1,-1,-1,-1,-1,-1],"loss_changes":[7.0999116E3,2.8541753E3,4.6944575E3,4.6109424E2,2.638891E3,4.178433E2,0E0,0E0,0E0,2.744804E3,1.8926138E3,0E0,0E0,0E0,0E0,0E0,0E0],"parents":[2147483647,0,0,1,1,2,2,3,3,4,4,5,5,9,9,10,10],"right_children":[2,4,6,8,10,12,-1,-1,-1,14,16,-1,-1,-1,-1,-1,-1],"split_conditions":[1.698279E0,-7.265914E-1,5.8120703E2,6.962E2,2.3844788E3,3.485341E2,4.872456E0,-2.946168E0,-1.0526388E0,2.614E2,8.71759E-1,-6.5625817E-1,1.020699E0,6.9816783E-3,-2.0611694E0,3.5501155E-1,2.645272E0],"split_indices":[29,14,12,0,28,12,0,0,0,2,24,0,0,0,0,0,0],"split_type":[0,0,0,0,0,0,0,0,0,0,0,0,0,0,0,0,0],"sum_hessian":[1.14E2,1.06E2,8E0,8E0,9.8E1,4E0,4E0,2E0,6E0,8.3E1,1.5E1,2E0,2E0,7.7E1,6E0,1E1,5E0],"tree_param":{"num_deleted":"0","num_feature":"30","num_nodes":"17","size_leaf_vector":"1"}},{"base_weights":[-5.6897455E-1,8.371267E-1,-2.5315268E1,7.3288326E0,-2.4662333E0,-3.3800263E0,-5.563517E0,-3.5722047E-1,1.2236195E1,-5.400015E0,7.1704855E0,-3.770752E-2,-7.968201E-1,1.6641368E0,-4.252493E-1,1.4625837E0,-7.773478E-1,-2.4853234E-1,-1.6832842E0,1.7385715E0,-3.8414645E-1],"categories":[],"categories_nodes":[],"categories_segments":[],"categories_sizes":[],"default_left":[0,0,0,0,0,0,0,0,0,0,0,0,0,0,0,0,0,0,0,0,0],"id":71,"left_children":[1,3,5,7,9,-1,11,13,15,17,19,-1,-1,-1,-1,-1,-1,-1,-1,-1,-1],"loss_changes":[3.883525E3,2.2911855E3,8.1751294E2,1.3622278E3,2.0460347E3,0E0,3.4410637E1,1.0639794E3,1.1656443E3,1.7909388E3,1.97911E3,0E0,0E0,0E0,0E0,0E0,0E0,0E0,0E0,0E0,0E0],"parents":[2147483647,0,0,1,1,2,2,3,3,4,4,6,6,7,7,8,8,9,9,10,10],"right_children":[2,4,6,8,10,-1,12,14,16,18,20,-1,-1,-1,-1,-1,-1,-1,-1,-1,-1],"split_conditions":[2.614E2,8.7168E2,2.717E2,9.056151E-1,2.093096E3,-3.3800263E0,7.38E2,3.472E3,3.1401508E0,7.736E2,4E0,-3.770752E-2,-7.968201E-1,1.6641368E0,-4.252493E-1,1.4625837E0,-7.773478E-1,-2.4853234E-1,-1.6832842E0,1.7385715E0,-3.8414645E-1],"split_indices":[2,26,2,29,12,0,0,25,14,17,9,0,0,0,0,0,0,0,0,0,0],